<?xml version="1.0"?>
<MethodSetup Method="BDT::BDT">
  <GeneralInfo>
    <Info name="TMVA Release" value="4.2.1 [262657]"/>
    <Info name="ROOT Release" value="6.05/02 [394498]"/>
    <Info name="Creator" value="rclsa"/>
    <Info name="Date" value="Thu Nov 26 19:12:16 2015"/>
    <Info name="Host" value="Darwin mac-126688.local 14.3.0 Darwin Kernel Version 14.3.0: Mon Mar 23 11:59:05 PDT 2015; root:xnu-2782.20.48~5/RELEASE_X86_64 x86_64"/>
    <Info name="Dir" value="/Users/rclsa/WW_2015/newcode/dymva_wwxsec"/>
    <Info name="Training events" value="198011"/>
    <Info name="TrainingTime" value="1.62195531e+02"/>
    <Info name="AnalysisType" value="Classification"/>
  </GeneralInfo>
  <Options>
    <Option name="V" modified="Yes">False</Option>
    <Option name="VerbosityLevel" modified="No">Default</Option>
    <Option name="VarTransform" modified="No">None</Option>
    <Option name="H" modified="Yes">False</Option>
    <Option name="CreateMVAPdfs" modified="No">False</Option>
    <Option name="IgnoreNegWeightsInTraining" modified="No">False</Option>
    <Option name="NTrees" modified="Yes">1000</Option>
    <Option name="MaxDepth" modified="Yes">3</Option>
    <Option name="MinNodeSize" modified="Yes">2.5%</Option>
    <Option name="nCuts" modified="Yes">20</Option>
    <Option name="BoostType" modified="Yes">AdaBoost</Option>
    <Option name="AdaBoostR2Loss" modified="No">quadratic</Option>
    <Option name="UseBaggedBoost" modified="Yes">True</Option>
    <Option name="Shrinkage" modified="No">1.000000e+00</Option>
    <Option name="AdaBoostBeta" modified="Yes">5.000000e-01</Option>
    <Option name="UseRandomisedTrees" modified="No">False</Option>
    <Option name="UseNvars" modified="No">4</Option>
    <Option name="UsePoissonNvars" modified="No">True</Option>
    <Option name="BaggedSampleFraction" modified="Yes">5.000000e-01</Option>
    <Option name="UseYesNoLeaf" modified="No">True</Option>
    <Option name="NegWeightTreatment" modified="No">inverseboostnegweights</Option>
    <Option name="Css" modified="No">1.000000e+00</Option>
    <Option name="Cts_sb" modified="No">1.000000e+00</Option>
    <Option name="Ctb_ss" modified="No">1.000000e+00</Option>
    <Option name="Cbb" modified="No">1.000000e+00</Option>
    <Option name="NodePurityLimit" modified="No">5.000000e-01</Option>
    <Option name="SeparationType" modified="Yes">giniindex</Option>
    <Option name="DoBoostMonitor" modified="No">False</Option>
    <Option name="UseFisherCuts" modified="No">False</Option>
    <Option name="MinLinCorrForFisher" modified="No">8.000000e-01</Option>
    <Option name="UseExclusiveVars" modified="No">False</Option>
    <Option name="DoPreselection" modified="No">False</Option>
    <Option name="SigToBkgFraction" modified="No">1.000000e+00</Option>
    <Option name="PruneMethod" modified="No">nopruning</Option>
    <Option name="PruneStrength" modified="No">0.000000e+00</Option>
    <Option name="PruningValFraction" modified="No">5.000000e-01</Option>
    <Option name="nEventsMin" modified="No">0</Option>
    <Option name="UseBaggedGrad" modified="No">False</Option>
    <Option name="GradBaggingFraction" modified="No">5.000000e-01</Option>
    <Option name="UseNTrainEvents" modified="No">0</Option>
    <Option name="NNodesMax" modified="No">0</Option>
  </Options>
  <Variables NVar="17">
    <Variable VarIndex="0" Expression="met" Label="met" Title="met" Unit="" Internal="met" Type="F" Min="1.29694745e-01" Max="1.03111096e+03"/>
    <Variable VarIndex="1" Expression="min_projmet" Label="min_projmet" Title="min_projmet" Unit="" Internal="min_projmet" Type="F" Min="4.62808268e-04" Max="3.53164368e+02"/>
    <Variable VarIndex="2" Expression="metsig" Label="metsig" Title="metsig" Unit="" Internal="metsig" Type="F" Min="3.24638048e-03" Max="2.25290565e+01"/>
    <Variable VarIndex="3" Expression="uperp" Label="uperp" Title="uperp" Unit="" Internal="uperp" Type="F" Min="-6.08163696e+02" Max="4.63877869e+02"/>
    <Variable VarIndex="4" Expression="upara" Label="upara" Title="upara" Unit="" Internal="upara" Type="F" Min="-1.62477112e+03" Max="3.47548096e+02"/>
    <Variable VarIndex="5" Expression="nGoodVertices" Label="nGoodVertices" Title="nGoodVertices" Unit="" Internal="nGoodVertices" Type="I" Min="1.00000000e+00" Max="4.30000000e+01"/>
    <Variable VarIndex="6" Expression="dilep_pt" Label="dilep_pt" Title="dilep_pt" Unit="" Internal="dilep_pt" Type="F" Min="1.01754390e-01" Max="1.51069958e+03"/>
    <Variable VarIndex="7" Expression="min_mt" Label="min_mt" Title="min_mt" Unit="" Internal="min_mt" Type="F" Min="0.00000000e+00" Max="5.64787292e+02"/>
    <Variable VarIndex="8" Expression="max_mt" Label="max_mt" Title="max_mt" Unit="" Internal="max_mt" Type="F" Min="1.91517264e-01" Max="9.56076477e+02"/>
    <Variable VarIndex="9" Expression="min_lep_met_dphi" Label="min_lep_met_dphi" Title="min_lep_met_dphi" Unit="" Internal="min_lep_met_dphi" Type="F" Min="4.86373901e-05" Max="3.13316488e+00"/>
    <Variable VarIndex="10" Expression="max_lep_met_dphi" Label="max_lep_met_dphi" Title="max_lep_met_dphi" Unit="" Internal="max_lep_met_dphi" Type="F" Min="1.11083984e-02" Max="3.14156389e+00"/>
    <Variable VarIndex="11" Expression="jet1_met_dphi" Label="jet1_met_dphi" Title="jet1_met_dphi" Unit="" Internal="jet1_met_dphi" Type="F" Min="1.26361847e-05" Max="3.14158535e+00"/>
    <Variable VarIndex="12" Expression="jet2_met_dphi" Label="jet2_met_dphi" Title="jet2_met_dphi" Unit="" Internal="jet2_met_dphi" Type="F" Min="9.61124897e-07" Max="3.14158702e+00"/>
    <Variable VarIndex="13" Expression="jet1_pt" Label="jet1_pt" Title="jet1_pt" Unit="" Internal="jet1_pt" Type="F" Min="3.01178780e+01" Max="2.46238354e+03"/>
    <Variable VarIndex="14" Expression="jet2_pt" Label="jet2_pt" Title="jet2_pt" Unit="" Internal="jet2_pt" Type="F" Min="3.00001144e+01" Max="2.14394482e+03"/>
    <Variable VarIndex="15" Expression="dilep_jet1_dphi" Label="dilep_jet1_dphi" Title="dilep_jet1_dphi" Unit="" Internal="dilep_jet1_dphi" Type="F" Min="2.50339508e-06" Max="3.14158273e+00"/>
    <Variable VarIndex="16" Expression="dilep_jet2_dphi" Label="dilep_jet2_dphi" Title="dilep_jet2_dphi" Unit="" Internal="dilep_jet2_dphi" Type="F" Min="5.12599945e-06" Max="3.14156723e+00"/>
  </Variables>
  <Spectators NSpec="0"/>
  <Classes NClass="2">
    <Class Name="Signal" Index="0"/>
    <Class Name="Background" Index="1"/>
  </Classes>
  <Transformations NTransformations="0"/>
  <MVAPdfs/>
  <Weights NTrees="1000" AnalysisType="0">
    <BinaryTree type="DecisionTree" boostWeight="7.3761233192730236e-01" itree="0">
      <Node pos="s" depth="0" NCoef="0" IVar="2" Cut="1.6395998001098633e+00" cType="0" res="-9.9000000000000000e+01" rms="0.0000000000000000e+00" purity="4.9302172660827637e-01" nType="0">
        <Node pos="l" depth="1" NCoef="0" IVar="-1" Cut="8.1194946289062500e+01" cType="0" res="-9.9000000000000000e+01" rms="0.0000000000000000e+00" purity="9.1394716501235962e-01" nType="1"/>
        <Node pos="r" depth="1" NCoef="0" IVar="8" Cut="6.4580085754394531e+01" cType="0" res="-9.9000000000000000e+01" rms="0.0000000000000000e+00" purity="2.6534104347229004e-01" nType="0">
          <Node pos="l" depth="2" NCoef="0" IVar="0" Cut="4.0322208404541016e+01" cType="0" res="-9.9000000000000000e+01" rms="0.0000000000000000e+00" purity="4.2875841259956360e-01" nType="0">
            <Node pos="l" depth="3" NCoef="0" IVar="-1" Cut="0.0000000000000000e+00" cType="1" res="-9.9000000000000000e+01" rms="0.0000000000000000e+00" purity="5.8681142330169678e-01" nType="1"/>
            <Node pos="r" depth="3" NCoef="0" IVar="-1" Cut="0.0000000000000000e+00" cType="1" res="-9.9000000000000000e+01" rms="0.0000000000000000e+00" purity="3.3967185020446777e-01" nType="-1"/>
          </Node>
          <Node pos="r" depth="2" NCoef="0" IVar="-1" Cut="3.7151535034179688e+01" cType="0" res="-9.9000000000000000e+01" rms="0.0000000000000000e+00" purity="1.5629494190216064e-01" nType="-1"/>
        </Node>
      </Node>
    </BinaryTree>
    <BinaryTree type="DecisionTree" boostWeight="5.6699001432679885e-01" itree="1">
      <Node pos="s" depth="0" NCoef="0" IVar="0" Cut="4.9331451416015625e+01" cType="0" res="-9.9000000000000000e+01" rms="0.0000000000000000e+00" purity="5.1304674148559570e-01" nType="0">
        <Node pos="l" depth="1" NCoef="0" IVar="2" Cut="1.9490922689437866e+00" cType="0" res="-9.9000000000000000e+01" rms="0.0000000000000000e+00" purity="8.3170199394226074e-01" nType="0">
          <Node pos="l" depth="2" NCoef="0" IVar="-1" Cut="1.2056759595870972e+00" cType="0" res="-9.9000000000000000e+01" rms="0.0000000000000000e+00" purity="9.3544268608093262e-01" nType="1"/>
          <Node pos="r" depth="2" NCoef="0" IVar="1" Cut="2.3947469711303711e+01" cType="0" res="-9.9000000000000000e+01" rms="0.0000000000000000e+00" purity="5.9414708614349365e-01" nType="0">
            <Node pos="l" depth="3" NCoef="0" IVar="-1" Cut="0.0000000000000000e+00" cType="1" res="-9.9000000000000000e+01" rms="0.0000000000000000e+00" purity="6.9404053688049316e-01" nType="1"/>
            <Node pos="r" depth="3" NCoef="0" IVar="-1" Cut="0.0000000000000000e+00" cType="1" res="-9.9000000000000000e+01" rms="0.0000000000000000e+00" purity="4.6974018216133118e-01" nType="-1"/>
          </Node>
        </Node>
        <Node pos="r" depth="1" NCoef="0" IVar="8" Cut="5.6540008544921875e+01" cType="0" res="-9.9000000000000000e+01" rms="0.0000000000000000e+00" purity="3.1157180666923523e-01" nType="0">
          <Node pos="l" depth="2" NCoef="0" IVar="1" Cut="3.2884323120117188e+01" cType="0" res="-9.9000000000000000e+01" rms="0.0000000000000000e+00" purity="4.2038518190383911e-01" nType="0">
            <Node pos="l" depth="3" NCoef="0" IVar="-1" Cut="0.0000000000000000e+00" cType="1" res="-9.9000000000000000e+01" rms="0.0000000000000000e+00" purity="5.7822144031524658e-01" nType="1"/>
            <Node pos="r" depth="3" NCoef="0" IVar="-1" Cut="0.0000000000000000e+00" cType="1" res="-9.9000000000000000e+01" rms="0.0000000000000000e+00" purity="3.8204842805862427e-01" nType="-1"/>
          </Node>
          <Node pos="r" depth="2" NCoef="0" IVar="-1" Cut="8.4779960632324219e+01" cType="0" res="-9.9000000000000000e+01" rms="0.0000000000000000e+00" purity="2.0021596550941467e-01" nType="-1"/>
        </Node>
      </Node>
    </BinaryTree>
    <BinaryTree type="DecisionTree" boostWeight="4.5546852553102618e-01" itree="2">
      <Node pos="s" depth="0" NCoef="0" IVar="2" Cut="1.7237313985824585e+00" cType="0" res="-9.9000000000000000e+01" rms="0.0000000000000000e+00" purity="5.2687710523605347e-01" nType="0">
        <Node pos="l" depth="1" NCoef="0" IVar="-1" Cut="9.0966972351074219e+01" cType="0" res="-9.9000000000000000e+01" rms="0.0000000000000000e+00" purity="8.7814933061599731e-01" nType="1"/>
        <Node pos="r" depth="1" NCoef="0" IVar="8" Cut="6.8730979919433594e+01" cType="0" res="-9.9000000000000000e+01" rms="0.0000000000000000e+00" purity="3.7404769659042358e-01" nType="0">
          <Node pos="l" depth="2" NCoef="0" IVar="6" Cut="1.5475022888183594e+02" cType="1" res="-9.9000000000000000e+01" rms="0.0000000000000000e+00" purity="4.9472680687904358e-01" nType="0">
            <Node pos="l" depth="3" NCoef="0" IVar="-1" Cut="0.0000000000000000e+00" cType="1" res="-9.9000000000000000e+01" rms="0.0000000000000000e+00" purity="5.2099341154098511e-01" nType="1"/>
            <Node pos="r" depth="3" NCoef="0" IVar="-1" Cut="0.0000000000000000e+00" cType="1" res="-9.9000000000000000e+01" rms="0.0000000000000000e+00" purity="2.4985595047473907e-01" nType="-1"/>
          </Node>
          <Node pos="r" depth="2" NCoef="0" IVar="-1" Cut="3.0281911849975586e+01" cType="0" res="-9.9000000000000000e+01" rms="0.0000000000000000e+00" purity="2.9087936878204346e-01" nType="-1"/>
        </Node>
      </Node>
    </BinaryTree>
    <BinaryTree type="DecisionTree" boostWeight="3.7036528382794565e-01" itree="3">
      <Node pos="s" depth="0" NCoef="0" IVar="2" Cut="1.8138217926025391e+00" cType="0" res="-9.9000000000000000e+01" rms="0.0000000000000000e+00" purity="5.2729552984237671e-01" nType="0">
        <Node pos="l" depth="1" NCoef="0" IVar="-1" Cut="9.0966972351074219e+01" cType="0" res="-9.9000000000000000e+01" rms="0.0000000000000000e+00" purity="8.7564170360565186e-01" nType="1"/>
        <Node pos="r" depth="1" NCoef="0" IVar="8" Cut="5.0700412750244141e+01" cType="0" res="-9.9000000000000000e+01" rms="0.0000000000000000e+00" purity="3.9980214834213257e-01" nType="0">
          <Node pos="l" depth="2" NCoef="0" IVar="11" Cut="1.1968022584915161e+00" cType="0" res="-9.9000000000000000e+01" rms="0.0000000000000000e+00" purity="4.5453375577926636e-01" nType="0">
            <Node pos="l" depth="3" NCoef="0" IVar="-1" Cut="0.0000000000000000e+00" cType="1" res="-9.9000000000000000e+01" rms="0.0000000000000000e+00" purity="5.0522708892822266e-01" nType="1"/>
            <Node pos="r" depth="3" NCoef="0" IVar="-1" Cut="0.0000000000000000e+00" cType="1" res="-9.9000000000000000e+01" rms="0.0000000000000000e+00" purity="3.6719399690628052e-01" nType="-1"/>
          </Node>
          <Node pos="r" depth="2" NCoef="0" IVar="-1" Cut="7.0479202270507812e+01" cType="0" res="-9.9000000000000000e+01" rms="0.0000000000000000e+00" purity="2.9727986454963684e-01" nType="-1"/>
        </Node>
      </Node>
    </BinaryTree>
    <BinaryTree type="DecisionTree" boostWeight="3.5574312292982241e-01" itree="4">
      <Node pos="s" depth="0" NCoef="0" IVar="2" Cut="2.1511392593383789e+00" cType="0" res="-9.9000000000000000e+01" rms="0.0000000000000000e+00" purity="5.2862179279327393e-01" nType="0">
        <Node pos="l" depth="1" NCoef="0" IVar="-1" Cut="8.6854187011718750e+01" cType="0" res="-9.9000000000000000e+01" rms="0.0000000000000000e+00" purity="9.0484160184860229e-01" nType="1"/>
        <Node pos="r" depth="1" NCoef="0" IVar="2" Cut="1.5382646322250366e+00" cType="0" res="-9.9000000000000000e+01" rms="0.0000000000000000e+00" purity="4.3285819888114929e-01" nType="0">
          <Node pos="l" depth="2" NCoef="0" IVar="8" Cut="7.6190864562988281e+01" cType="0" res="-9.9000000000000000e+01" rms="0.0000000000000000e+00" purity="6.1846858263015747e-01" nType="0">
            <Node pos="l" depth="3" NCoef="0" IVar="-1" Cut="0.0000000000000000e+00" cType="1" res="-9.9000000000000000e+01" rms="0.0000000000000000e+00" purity="6.9039905071258545e-01" nType="1"/>
            <Node pos="r" depth="3" NCoef="0" IVar="-1" Cut="0.0000000000000000e+00" cType="1" res="-9.9000000000000000e+01" rms="0.0000000000000000e+00" purity="4.7217276692390442e-01" nType="-1"/>
          </Node>
          <Node pos="r" depth="2" NCoef="0" IVar="-1" Cut="1.9512105941772461e+01" cType="0" res="-9.9000000000000000e+01" rms="0.0000000000000000e+00" purity="3.9420813322067261e-01" nType="-1"/>
        </Node>
      </Node>
    </BinaryTree>
    <BinaryTree type="DecisionTree" boostWeight="2.7288876483890812e-01" itree="5">
      <Node pos="s" depth="0" NCoef="0" IVar="0" Cut="6.8830764770507812e+01" cType="0" res="-9.9000000000000000e+01" rms="0.0000000000000000e+00" purity="5.4047828912734985e-01" nType="0">
        <Node pos="l" depth="1" NCoef="0" IVar="-1" Cut="9.1762077331542969e+01" cType="0" res="-9.9000000000000000e+01" rms="0.0000000000000000e+00" purity="8.7430799007415771e-01" nType="1"/>
        <Node pos="r" depth="1" NCoef="0" IVar="0" Cut="2.9572599411010742e+01" cType="0" res="-9.9000000000000000e+01" rms="0.0000000000000000e+00" purity="4.5740762352943420e-01" nType="0">
          <Node pos="l" depth="2" NCoef="0" IVar="0" Cut="5.5744251251220703e+01" cType="0" res="-9.9000000000000000e+01" rms="0.0000000000000000e+00" purity="5.2765339612960815e-01" nType="0">
            <Node pos="l" depth="3" NCoef="0" IVar="-1" Cut="0.0000000000000000e+00" cType="1" res="-9.9000000000000000e+01" rms="0.0000000000000000e+00" purity="6.4994418621063232e-01" nType="1"/>
            <Node pos="r" depth="3" NCoef="0" IVar="-1" Cut="0.0000000000000000e+00" cType="1" res="-9.9000000000000000e+01" rms="0.0000000000000000e+00" purity="4.9881374835968018e-01" nType="-1"/>
          </Node>
          <Node pos="r" depth="2" NCoef="0" IVar="-1" Cut="8.8832878112792969e+01" cType="0" res="-9.9000000000000000e+01" rms="0.0000000000000000e+00" purity="3.7693780660629272e-01" nType="-1"/>
        </Node>
      </Node>
    </BinaryTree>
    <BinaryTree type="DecisionTree" boostWeight="2.9347442957536796e-01" itree="6">
      <Node pos="s" depth="0" NCoef="0" IVar="2" Cut="2.1538290977478027e+00" cType="0" res="-9.9000000000000000e+01" rms="0.0000000000000000e+00" purity="5.6110608577728271e-01" nType="0">
        <Node pos="l" depth="1" NCoef="0" IVar="-1" Cut="1.5017960071563721e+00" cType="0" res="-9.9000000000000000e+01" rms="0.0000000000000000e+00" purity="8.7107801437377930e-01" nType="1"/>
        <Node pos="r" depth="1" NCoef="0" IVar="0" Cut="2.8267848968505859e+01" cType="0" res="-9.9000000000000000e+01" rms="0.0000000000000000e+00" purity="4.9209582805633545e-01" nType="0">
          <Node pos="l" depth="2" NCoef="0" IVar="15" Cut="2.6928753852844238e+00" cType="1" res="-9.9000000000000000e+01" rms="0.0000000000000000e+00" purity="5.4799711704254150e-01" nType="0">
            <Node pos="l" depth="3" NCoef="0" IVar="-1" Cut="0.0000000000000000e+00" cType="1" res="-9.9000000000000000e+01" rms="0.0000000000000000e+00" purity="6.0407352447509766e-01" nType="1"/>
            <Node pos="r" depth="3" NCoef="0" IVar="-1" Cut="0.0000000000000000e+00" cType="1" res="-9.9000000000000000e+01" rms="0.0000000000000000e+00" purity="4.6290984749794006e-01" nType="-1"/>
          </Node>
          <Node pos="r" depth="2" NCoef="0" IVar="14" Cut="8.0347427368164062e+01" cType="0" res="-9.9000000000000000e+01" rms="0.0000000000000000e+00" purity="4.1604283452033997e-01" nType="0">
            <Node pos="l" depth="3" NCoef="0" IVar="-1" Cut="0.0000000000000000e+00" cType="1" res="-9.9000000000000000e+01" rms="0.0000000000000000e+00" purity="5.8790975809097290e-01" nType="1"/>
            <Node pos="r" depth="3" NCoef="0" IVar="-1" Cut="0.0000000000000000e+00" cType="1" res="-9.9000000000000000e+01" rms="0.0000000000000000e+00" purity="3.8434916734695435e-01" nType="-1"/>
          </Node>
        </Node>
      </Node>
    </BinaryTree>
    <BinaryTree type="DecisionTree" boostWeight="2.7449390176678556e-01" itree="7">
      <Node pos="s" depth="0" NCoef="0" IVar="0" Cut="6.8650245666503906e+01" cType="0" res="-9.9000000000000000e+01" rms="0.0000000000000000e+00" purity="5.6363272666931152e-01" nType="0">
        <Node pos="l" depth="1" NCoef="0" IVar="10" Cut="1.2036584615707397e+00" cType="0" res="-9.9000000000000000e+01" rms="0.0000000000000000e+00" purity="8.4384346008300781e-01" nType="0">
          <Node pos="l" depth="2" NCoef="0" IVar="-1" Cut="2.7618193626403809e+00" cType="0" res="-9.9000000000000000e+01" rms="0.0000000000000000e+00" purity="9.1014218330383301e-01" nType="1"/>
          <Node pos="r" depth="2" NCoef="0" IVar="-1" Cut="0.0000000000000000e+00" cType="1" res="-9.9000000000000000e+01" rms="0.0000000000000000e+00" purity="4.6121865510940552e-01" nType="-1"/>
        </Node>
        <Node pos="r" depth="1" NCoef="0" IVar="1" Cut="1.9615676879882812e+01" cType="0" res="-9.9000000000000000e+01" rms="0.0000000000000000e+00" purity="4.9870449304580688e-01" nType="0">
          <Node pos="l" depth="2" NCoef="0" IVar="-1" Cut="2.3935225009918213e+00" cType="1" res="-9.9000000000000000e+01" rms="0.0000000000000000e+00" purity="5.7084065675735474e-01" nType="1"/>
          <Node pos="r" depth="2" NCoef="0" IVar="13" Cut="8.7001708984375000e+01" cType="0" res="-9.9000000000000000e+01" rms="0.0000000000000000e+00" purity="4.5330896973609924e-01" nType="0">
            <Node pos="l" depth="3" NCoef="0" IVar="-1" Cut="0.0000000000000000e+00" cType="1" res="-9.9000000000000000e+01" rms="0.0000000000000000e+00" purity="5.5327278375625610e-01" nType="1"/>
            <Node pos="r" depth="3" NCoef="0" IVar="-1" Cut="0.0000000000000000e+00" cType="1" res="-9.9000000000000000e+01" rms="0.0000000000000000e+00" purity="3.8484504818916321e-01" nType="-1"/>
          </Node>
        </Node>
      </Node>
    </BinaryTree>
    <BinaryTree type="DecisionTree" boostWeight="2.3425332909353447e-01" itree="8">
      <Node pos="s" depth="0" NCoef="0" IVar="2" Cut="2.1511392593383789e+00" cType="0" res="-9.9000000000000000e+01" rms="0.0000000000000000e+00" purity="5.4078233242034912e-01" nType="0">
        <Node pos="l" depth="1" NCoef="0" IVar="-1" Cut="9.0966972351074219e+01" cType="0" res="-9.9000000000000000e+01" rms="0.0000000000000000e+00" purity="8.6105197668075562e-01" nType="1"/>
        <Node pos="r" depth="1" NCoef="0" IVar="1" Cut="1.5085824966430664e+01" cType="0" res="-9.9000000000000000e+01" rms="0.0000000000000000e+00" purity="4.7695589065551758e-01" nType="0">
          <Node pos="l" depth="2" NCoef="0" IVar="15" Cut="2.3936264514923096e+00" cType="1" res="-9.9000000000000000e+01" rms="0.0000000000000000e+00" purity="5.2854913473129272e-01" nType="0">
            <Node pos="l" depth="3" NCoef="0" IVar="-1" Cut="0.0000000000000000e+00" cType="1" res="-9.9000000000000000e+01" rms="0.0000000000000000e+00" purity="5.9983462095260620e-01" nType="1"/>
            <Node pos="r" depth="3" NCoef="0" IVar="-1" Cut="0.0000000000000000e+00" cType="1" res="-9.9000000000000000e+01" rms="0.0000000000000000e+00" purity="4.7488448023796082e-01" nType="-1"/>
          </Node>
          <Node pos="r" depth="2" NCoef="0" IVar="4" Cut="-6.4631462097167969e+01" cType="1" res="-9.9000000000000000e+01" rms="0.0000000000000000e+00" purity="4.2784932255744934e-01" nType="0">
            <Node pos="l" depth="3" NCoef="0" IVar="-1" Cut="0.0000000000000000e+00" cType="1" res="-9.9000000000000000e+01" rms="0.0000000000000000e+00" purity="5.0201165676116943e-01" nType="1"/>
            <Node pos="r" depth="3" NCoef="0" IVar="-1" Cut="0.0000000000000000e+00" cType="1" res="-9.9000000000000000e+01" rms="0.0000000000000000e+00" purity="3.3652105927467346e-01" nType="-1"/>
          </Node>
        </Node>
      </Node>
    </BinaryTree>
    <BinaryTree type="DecisionTree" boostWeight="1.9643217031712171e-01" itree="9">
      <Node pos="s" depth="0" NCoef="0" IVar="2" Cut="2.1530222892761230e+00" cType="0" res="-9.9000000000000000e+01" rms="0.0000000000000000e+00" purity="5.4387819766998291e-01" nType="0">
        <Node pos="l" depth="1" NCoef="0" IVar="8" Cut="7.4304206848144531e+01" cType="0" res="-9.9000000000000000e+01" rms="0.0000000000000000e+00" purity="8.1464999914169312e-01" nType="0">
          <Node pos="l" depth="2" NCoef="0" IVar="-1" Cut="3.1233098506927490e+00" cType="0" res="-9.9000000000000000e+01" rms="0.0000000000000000e+00" purity="8.9931333065032959e-01" nType="1"/>
          <Node pos="r" depth="2" NCoef="0" IVar="-1" Cut="0.0000000000000000e+00" cType="1" res="-9.9000000000000000e+01" rms="0.0000000000000000e+00" purity="4.1147246956825256e-01" nType="-1"/>
        </Node>
        <Node pos="r" depth="1" NCoef="0" IVar="4" Cut="-2.0145141601562500e+02" cType="0" res="-9.9000000000000000e+01" rms="0.0000000000000000e+00" purity="4.8890167474746704e-01" nType="0">
          <Node pos="l" depth="2" NCoef="0" IVar="6" Cut="2.7192710876464844e+01" cType="0" res="-9.9000000000000000e+01" rms="0.0000000000000000e+00" purity="4.9692761898040771e-01" nType="0">
            <Node pos="l" depth="3" NCoef="0" IVar="-1" Cut="0.0000000000000000e+00" cType="1" res="-9.9000000000000000e+01" rms="0.0000000000000000e+00" purity="5.2133309841156006e-01" nType="1"/>
            <Node pos="r" depth="3" NCoef="0" IVar="-1" Cut="0.0000000000000000e+00" cType="1" res="-9.9000000000000000e+01" rms="0.0000000000000000e+00" purity="3.4942269325256348e-01" nType="-1"/>
          </Node>
          <Node pos="r" depth="2" NCoef="0" IVar="-1" Cut="0.0000000000000000e+00" cType="1" res="-9.9000000000000000e+01" rms="0.0000000000000000e+00" purity="2.4593070149421692e-01" nType="-1"/>
        </Node>
      </Node>
    </BinaryTree>
    <BinaryTree type="DecisionTree" boostWeight="2.2703788690990739e-01" itree="10">
      <Node pos="s" depth="0" NCoef="0" IVar="0" Cut="6.8991989135742188e+01" cType="0" res="-9.9000000000000000e+01" rms="0.0000000000000000e+00" purity="5.2737444639205933e-01" nType="0">
        <Node pos="l" depth="1" NCoef="0" IVar="10" Cut="1.2063056230545044e+00" cType="0" res="-9.9000000000000000e+01" rms="0.0000000000000000e+00" purity="8.0695527791976929e-01" nType="0">
          <Node pos="l" depth="2" NCoef="0" IVar="-1" Cut="2.7687458992004395e+00" cType="0" res="-9.9000000000000000e+01" rms="0.0000000000000000e+00" purity="8.6985552310943604e-01" nType="1"/>
          <Node pos="r" depth="2" NCoef="0" IVar="-1" Cut="0.0000000000000000e+00" cType="1" res="-9.9000000000000000e+01" rms="0.0000000000000000e+00" purity="4.8267528414726257e-01" nType="-1"/>
        </Node>
        <Node pos="r" depth="1" NCoef="0" IVar="0" Cut="2.9743524551391602e+01" cType="0" res="-9.9000000000000000e+01" rms="0.0000000000000000e+00" purity="4.6907204389572144e-01" nType="0">
          <Node pos="l" depth="2" NCoef="0" IVar="12" Cut="1.0472216606140137e+00" cType="0" res="-9.9000000000000000e+01" rms="0.0000000000000000e+00" purity="5.1185196638107300e-01" nType="0">
            <Node pos="l" depth="3" NCoef="0" IVar="-1" Cut="0.0000000000000000e+00" cType="1" res="-9.9000000000000000e+01" rms="0.0000000000000000e+00" purity="5.5243003368377686e-01" nType="1"/>
            <Node pos="r" depth="3" NCoef="0" IVar="-1" Cut="0.0000000000000000e+00" cType="1" res="-9.9000000000000000e+01" rms="0.0000000000000000e+00" purity="4.2232000827789307e-01" nType="-1"/>
          </Node>
          <Node pos="r" depth="2" NCoef="0" IVar="-1" Cut="4.6212989807128906e+01" cType="0" res="-9.9000000000000000e+01" rms="0.0000000000000000e+00" purity="4.1939648985862732e-01" nType="-1"/>
        </Node>
      </Node>
    </BinaryTree>
    <BinaryTree type="DecisionTree" boostWeight="1.6436152086625780e-01" itree="11">
      <Node pos="s" depth="0" NCoef="0" IVar="2" Cut="2.5793716907501221e+00" cType="0" res="-9.9000000000000000e+01" rms="0.0000000000000000e+00" purity="5.2700495719909668e-01" nType="0">
        <Node pos="l" depth="1" NCoef="0" IVar="-1" Cut="2.5631784439086914e+01" cType="0" res="-9.9000000000000000e+01" rms="0.0000000000000000e+00" purity="8.8122922182083130e-01" nType="1"/>
        <Node pos="r" depth="1" NCoef="0" IVar="2" Cut="1.9660001993179321e+00" cType="0" res="-9.9000000000000000e+01" rms="0.0000000000000000e+00" purity="4.8316752910614014e-01" nType="0">
          <Node pos="l" depth="2" NCoef="0" IVar="-1" Cut="3.0157947540283203e+01" cType="0" res="-9.9000000000000000e+01" rms="0.0000000000000000e+00" purity="6.5760886669158936e-01" nType="1"/>
          <Node pos="r" depth="2" NCoef="0" IVar="-1" Cut="1.4376879882812500e+02" cType="1" res="-9.9000000000000000e+01" rms="0.0000000000000000e+00" purity="4.6648350358009338e-01" nType="-1"/>
        </Node>
      </Node>
    </BinaryTree>
    <BinaryTree type="DecisionTree" boostWeight="1.9802976703985242e-01" itree="12">
      <Node pos="s" depth="0" NCoef="0" IVar="2" Cut="1.8165116310119629e+00" cType="0" res="-9.9000000000000000e+01" rms="0.0000000000000000e+00" purity="5.4833531379699707e-01" nType="0">
        <Node pos="l" depth="1" NCoef="0" IVar="8" Cut="9.1762077331542969e+01" cType="0" res="-9.9000000000000000e+01" rms="0.0000000000000000e+00" purity="7.7237856388092041e-01" nType="0">
          <Node pos="l" depth="2" NCoef="0" IVar="-1" Cut="2.4763872623443604e+00" cType="0" res="-9.9000000000000000e+01" rms="0.0000000000000000e+00" purity="8.7723791599273682e-01" nType="1"/>
          <Node pos="r" depth="2" NCoef="0" IVar="8" Cut="6.1435192108154297e+01" cType="0" res="-9.9000000000000000e+01" rms="0.0000000000000000e+00" purity="5.4512614011764526e-01" nType="0">
            <Node pos="l" depth="3" NCoef="0" IVar="-1" Cut="0.0000000000000000e+00" cType="1" res="-9.9000000000000000e+01" rms="0.0000000000000000e+00" purity="6.6364836692810059e-01" nType="1"/>
            <Node pos="r" depth="3" NCoef="0" IVar="-1" Cut="0.0000000000000000e+00" cType="1" res="-9.9000000000000000e+01" rms="0.0000000000000000e+00" purity="3.9703974127769470e-01" nType="-1"/>
          </Node>
        </Node>
        <Node pos="r" depth="1" NCoef="0" IVar="6" Cut="1.7827508544921875e+02" cType="1" res="-9.9000000000000000e+01" rms="0.0000000000000000e+00" purity="4.8943480849266052e-01" nType="0">
          <Node pos="l" depth="2" NCoef="0" IVar="6" Cut="3.4196308135986328e+01" cType="0" res="-9.9000000000000000e+01" rms="0.0000000000000000e+00" purity="4.9767243862152100e-01" nType="0">
            <Node pos="l" depth="3" NCoef="0" IVar="-1" Cut="0.0000000000000000e+00" cType="1" res="-9.9000000000000000e+01" rms="0.0000000000000000e+00" purity="5.2171820402145386e-01" nType="1"/>
            <Node pos="r" depth="3" NCoef="0" IVar="-1" Cut="0.0000000000000000e+00" cType="1" res="-9.9000000000000000e+01" rms="0.0000000000000000e+00" purity="3.9916473627090454e-01" nType="-1"/>
          </Node>
          <Node pos="r" depth="2" NCoef="0" IVar="-1" Cut="0.0000000000000000e+00" cType="1" res="-9.9000000000000000e+01" rms="0.0000000000000000e+00" purity="2.6742142438888550e-01" nType="-1"/>
        </Node>
      </Node>
    </BinaryTree>
    <BinaryTree type="DecisionTree" boostWeight="1.9849283994586189e-01" itree="13">
      <Node pos="s" depth="0" NCoef="0" IVar="2" Cut="2.1511392593383789e+00" cType="0" res="-9.9000000000000000e+01" rms="0.0000000000000000e+00" purity="5.2195930480957031e-01" nType="0">
        <Node pos="l" depth="1" NCoef="0" IVar="8" Cut="8.0337005615234375e+01" cType="0" res="-9.9000000000000000e+01" rms="0.0000000000000000e+00" purity="8.0288648605346680e-01" nType="0">
          <Node pos="l" depth="2" NCoef="0" IVar="-1" Cut="3.1216340065002441e+00" cType="0" res="-9.9000000000000000e+01" rms="0.0000000000000000e+00" purity="8.8470125198364258e-01" nType="1"/>
          <Node pos="r" depth="2" NCoef="0" IVar="-1" Cut="0.0000000000000000e+00" cType="1" res="-9.9000000000000000e+01" rms="0.0000000000000000e+00" purity="4.9945855140686035e-01" nType="-1"/>
        </Node>
        <Node pos="r" depth="1" NCoef="0" IVar="8" Cut="8.4395446777343750e+01" cType="0" res="-9.9000000000000000e+01" rms="0.0000000000000000e+00" purity="4.7273308038711548e-01" nType="0">
          <Node pos="l" depth="2" NCoef="0" IVar="6" Cut="1.2421316528320312e+02" cType="1" res="-9.9000000000000000e+01" rms="0.0000000000000000e+00" purity="5.3752017021179199e-01" nType="0">
            <Node pos="l" depth="3" NCoef="0" IVar="-1" Cut="0.0000000000000000e+00" cType="1" res="-9.9000000000000000e+01" rms="0.0000000000000000e+00" purity="5.7856774330139160e-01" nType="1"/>
            <Node pos="r" depth="3" NCoef="0" IVar="-1" Cut="0.0000000000000000e+00" cType="1" res="-9.9000000000000000e+01" rms="0.0000000000000000e+00" purity="3.9962229132652283e-01" nType="-1"/>
          </Node>
          <Node pos="r" depth="2" NCoef="0" IVar="-1" Cut="2.8433708190917969e+01" cType="0" res="-9.9000000000000000e+01" rms="0.0000000000000000e+00" purity="4.4666025042533875e-01" nType="-1"/>
        </Node>
      </Node>
    </BinaryTree>
    <BinaryTree type="DecisionTree" boostWeight="1.7674832335300503e-01" itree="14">
      <Node pos="s" depth="0" NCoef="0" IVar="2" Cut="2.2418549060821533e+00" cType="0" res="-9.9000000000000000e+01" rms="0.0000000000000000e+00" purity="5.3729581832885742e-01" nType="0">
        <Node pos="l" depth="1" NCoef="0" IVar="-1" Cut="1.3552544116973877e+00" cType="0" res="-9.9000000000000000e+01" rms="0.0000000000000000e+00" purity="8.4150314331054688e-01" nType="1"/>
        <Node pos="r" depth="1" NCoef="0" IVar="15" Cut="2.5432236194610596e+00" cType="1" res="-9.9000000000000000e+01" rms="0.0000000000000000e+00" purity="4.9124708771705627e-01" nType="0">
          <Node pos="l" depth="2" NCoef="0" IVar="13" Cut="9.3726783752441406e+01" cType="0" res="-9.9000000000000000e+01" rms="0.0000000000000000e+00" purity="5.3131657838821411e-01" nType="0">
            <Node pos="l" depth="3" NCoef="0" IVar="-1" Cut="0.0000000000000000e+00" cType="1" res="-9.9000000000000000e+01" rms="0.0000000000000000e+00" purity="6.1151492595672607e-01" nType="1"/>
            <Node pos="r" depth="3" NCoef="0" IVar="-1" Cut="0.0000000000000000e+00" cType="1" res="-9.9000000000000000e+01" rms="0.0000000000000000e+00" purity="4.8626205325126648e-01" nType="-1"/>
          </Node>
          <Node pos="r" depth="2" NCoef="0" IVar="-1" Cut="2.5429925918579102e+00" cType="1" res="-9.9000000000000000e+01" rms="0.0000000000000000e+00" purity="4.5088681578636169e-01" nType="-1"/>
        </Node>
      </Node>
    </BinaryTree>
    <BinaryTree type="DecisionTree" boostWeight="1.0912034984286334e-01" itree="15">
      <Node pos="s" depth="0" NCoef="0" IVar="2" Cut="2.7152433395385742e+00" cType="0" res="-9.9000000000000000e+01" rms="0.0000000000000000e+00" purity="5.4269748926162720e-01" nType="0">
        <Node pos="l" depth="1" NCoef="0" IVar="-1" Cut="-8.6679595947265625e+01" cType="0" res="-9.9000000000000000e+01" rms="0.0000000000000000e+00" purity="8.7196534872055054e-01" nType="1"/>
        <Node pos="r" depth="1" NCoef="0" IVar="6" Cut="1.9194575500488281e+02" cType="1" res="-9.9000000000000000e+01" rms="0.0000000000000000e+00" purity="5.1177340745925903e-01" nType="0">
          <Node pos="l" depth="2" NCoef="0" IVar="-1" Cut="1.8123569488525391e+00" cType="0" res="-9.9000000000000000e+01" rms="0.0000000000000000e+00" purity="5.1870709657669067e-01" nType="1"/>
          <Node pos="r" depth="2" NCoef="0" IVar="-1" Cut="0.0000000000000000e+00" cType="1" res="-9.9000000000000000e+01" rms="0.0000000000000000e+00" purity="2.8837087750434875e-01" nType="-1"/>
        </Node>
      </Node>
    </BinaryTree>
    <BinaryTree type="DecisionTree" boostWeight="1.7400243001486099e-01" itree="16">
      <Node pos="s" depth="0" NCoef="0" IVar="2" Cut="2.1511392593383789e+00" cType="0" res="-9.9000000000000000e+01" rms="0.0000000000000000e+00" purity="5.4345977306365967e-01" nType="0">
        <Node pos="l" depth="1" NCoef="0" IVar="-1" Cut="9.0966972351074219e+01" cType="0" res="-9.9000000000000000e+01" rms="0.0000000000000000e+00" purity="7.7427530288696289e-01" nType="1"/>
        <Node pos="r" depth="1" NCoef="0" IVar="1" Cut="1.0358324050903320e+01" cType="0" res="-9.9000000000000000e+01" rms="0.0000000000000000e+00" purity="5.0487160682678223e-01" nType="0">
          <Node pos="l" depth="2" NCoef="0" IVar="11" Cut="8.9758759737014771e-01" cType="0" res="-9.9000000000000000e+01" rms="0.0000000000000000e+00" purity="5.3189796209335327e-01" nType="0">
            <Node pos="l" depth="3" NCoef="0" IVar="-1" Cut="0.0000000000000000e+00" cType="1" res="-9.9000000000000000e+01" rms="0.0000000000000000e+00" purity="5.5827349424362183e-01" nType="1"/>
            <Node pos="r" depth="3" NCoef="0" IVar="-1" Cut="0.0000000000000000e+00" cType="1" res="-9.9000000000000000e+01" rms="0.0000000000000000e+00" purity="4.6419242024421692e-01" nType="-1"/>
          </Node>
          <Node pos="r" depth="2" NCoef="0" IVar="14" Cut="8.2506637573242188e+01" cType="0" res="-9.9000000000000000e+01" rms="0.0000000000000000e+00" purity="4.5843997597694397e-01" nType="0">
            <Node pos="l" depth="3" NCoef="0" IVar="-1" Cut="0.0000000000000000e+00" cType="1" res="-9.9000000000000000e+01" rms="0.0000000000000000e+00" purity="5.6004798412322998e-01" nType="1"/>
            <Node pos="r" depth="3" NCoef="0" IVar="-1" Cut="0.0000000000000000e+00" cType="1" res="-9.9000000000000000e+01" rms="0.0000000000000000e+00" purity="4.4079887866973877e-01" nType="-1"/>
          </Node>
        </Node>
      </Node>
    </BinaryTree>
    <BinaryTree type="DecisionTree" boostWeight="1.3691378323486769e-01" itree="17">
      <Node pos="s" depth="0" NCoef="0" IVar="2" Cut="2.1518421173095703e+00" cType="0" res="-9.9000000000000000e+01" rms="0.0000000000000000e+00" purity="5.2629840373992920e-01" nType="0">
        <Node pos="l" depth="1" NCoef="0" IVar="-1" Cut="9.1749786376953125e+01" cType="0" res="-9.9000000000000000e+01" rms="0.0000000000000000e+00" purity="7.6729202270507812e-01" nType="1"/>
        <Node pos="r" depth="1" NCoef="0" IVar="12" Cut="7.4803072214126587e-01" cType="0" res="-9.9000000000000000e+01" rms="0.0000000000000000e+00" purity="4.8784297704696655e-01" nType="0">
          <Node pos="l" depth="2" NCoef="0" IVar="8" Cut="9.1875602722167969e+01" cType="0" res="-9.9000000000000000e+01" rms="0.0000000000000000e+00" purity="5.0502610206604004e-01" nType="0">
            <Node pos="l" depth="3" NCoef="0" IVar="-1" Cut="0.0000000000000000e+00" cType="1" res="-9.9000000000000000e+01" rms="0.0000000000000000e+00" purity="5.7412433624267578e-01" nType="1"/>
            <Node pos="r" depth="3" NCoef="0" IVar="-1" Cut="0.0000000000000000e+00" cType="1" res="-9.9000000000000000e+01" rms="0.0000000000000000e+00" purity="4.8653134703636169e-01" nType="-1"/>
          </Node>
          <Node pos="r" depth="2" NCoef="0" IVar="-1" Cut="8.2390141487121582e-01" cType="1" res="-9.9000000000000000e+01" rms="0.0000000000000000e+00" purity="4.3055549263954163e-01" nType="-1"/>
        </Node>
      </Node>
    </BinaryTree>
    <BinaryTree type="DecisionTree" boostWeight="1.4679495629316830e-01" itree="18">
      <Node pos="s" depth="0" NCoef="0" IVar="2" Cut="2.7152433395385742e+00" cType="0" res="-9.9000000000000000e+01" rms="0.0000000000000000e+00" purity="5.3442907333374023e-01" nType="0">
        <Node pos="l" depth="1" NCoef="0" IVar="-1" Cut="4.4113072752952576e-01" cType="0" res="-9.9000000000000000e+01" rms="0.0000000000000000e+00" purity="8.6272865533828735e-01" nType="1"/>
        <Node pos="r" depth="1" NCoef="0" IVar="6" Cut="1.2857911682128906e+02" cType="1" res="-9.9000000000000000e+01" rms="0.0000000000000000e+00" purity="5.0603342056274414e-01" nType="0">
          <Node pos="l" depth="2" NCoef="0" IVar="6" Cut="1.8625238418579102e+01" cType="0" res="-9.9000000000000000e+01" rms="0.0000000000000000e+00" purity="5.1954567432403564e-01" nType="0">
            <Node pos="l" depth="3" NCoef="0" IVar="-1" Cut="0.0000000000000000e+00" cType="1" res="-9.9000000000000000e+01" rms="0.0000000000000000e+00" purity="5.3335106372833252e-01" nType="1"/>
            <Node pos="r" depth="3" NCoef="0" IVar="-1" Cut="0.0000000000000000e+00" cType="1" res="-9.9000000000000000e+01" rms="0.0000000000000000e+00" purity="3.7467360496520996e-01" nType="-1"/>
          </Node>
          <Node pos="r" depth="2" NCoef="0" IVar="-1" Cut="1.8661451721191406e+02" cType="1" res="-9.9000000000000000e+01" rms="0.0000000000000000e+00" purity="4.0300664305686951e-01" nType="-1"/>
        </Node>
      </Node>
    </BinaryTree>
    <BinaryTree type="DecisionTree" boostWeight="9.6861618052023091e-02" itree="19">
      <Node pos="s" depth="0" NCoef="0" IVar="2" Cut="2.7152433395385742e+00" cType="0" res="-9.9000000000000000e+01" rms="0.0000000000000000e+00" purity="5.1945155858993530e-01" nType="0">
        <Node pos="l" depth="1" NCoef="0" IVar="-1" Cut="-1.3801730346679688e+02" cType="0" res="-9.9000000000000000e+01" rms="0.0000000000000000e+00" purity="8.2653182744979858e-01" nType="1"/>
        <Node pos="r" depth="1" NCoef="0" IVar="12" Cut="7.4804294109344482e-01" cType="0" res="-9.9000000000000000e+01" rms="0.0000000000000000e+00" purity="4.9308472871780396e-01" nType="0">
          <Node pos="l" depth="2" NCoef="0" IVar="-1" Cut="7.7760749816894531e+01" cType="0" res="-9.9000000000000000e+01" rms="0.0000000000000000e+00" purity="5.1134437322616577e-01" nType="1"/>
          <Node pos="r" depth="2" NCoef="0" IVar="-1" Cut="2.5471606254577637e+00" cType="0" res="-9.9000000000000000e+01" rms="0.0000000000000000e+00" purity="4.3191188573837280e-01" nType="-1"/>
        </Node>
      </Node>
    </BinaryTree>
    <BinaryTree type="DecisionTree" boostWeight="1.3521475209471903e-01" itree="20">
      <Node pos="s" depth="0" NCoef="0" IVar="2" Cut="2.1538290977478027e+00" cType="0" res="-9.9000000000000000e+01" rms="0.0000000000000000e+00" purity="5.2352845668792725e-01" nType="0">
        <Node pos="l" depth="1" NCoef="0" IVar="10" Cut="1.2063107490539551e+00" cType="0" res="-9.9000000000000000e+01" rms="0.0000000000000000e+00" purity="7.6061457395553589e-01" nType="0">
          <Node pos="l" depth="2" NCoef="0" IVar="-1" Cut="3.1241600513458252e+00" cType="0" res="-9.9000000000000000e+01" rms="0.0000000000000000e+00" purity="8.4605395793914795e-01" nType="1"/>
          <Node pos="r" depth="2" NCoef="0" IVar="-1" Cut="0.0000000000000000e+00" cType="1" res="-9.9000000000000000e+01" rms="0.0000000000000000e+00" purity="4.2647194862365723e-01" nType="-1"/>
        </Node>
        <Node pos="r" depth="1" NCoef="0" IVar="6" Cut="1.7587493896484375e+02" cType="1" res="-9.9000000000000000e+01" rms="0.0000000000000000e+00" purity="4.8862645030021667e-01" nType="0">
          <Node pos="l" depth="2" NCoef="0" IVar="8" Cut="9.3867294311523438e+01" cType="0" res="-9.9000000000000000e+01" rms="0.0000000000000000e+00" purity="4.9491795897483826e-01" nType="0">
            <Node pos="l" depth="3" NCoef="0" IVar="-1" Cut="0.0000000000000000e+00" cType="1" res="-9.9000000000000000e+01" rms="0.0000000000000000e+00" purity="5.6301969289779663e-01" nType="1"/>
            <Node pos="r" depth="3" NCoef="0" IVar="-1" Cut="0.0000000000000000e+00" cType="1" res="-9.9000000000000000e+01" rms="0.0000000000000000e+00" purity="4.7902718186378479e-01" nType="-1"/>
          </Node>
          <Node pos="r" depth="2" NCoef="0" IVar="-1" Cut="0.0000000000000000e+00" cType="1" res="-9.9000000000000000e+01" rms="0.0000000000000000e+00" purity="3.2868567109107971e-01" nType="-1"/>
        </Node>
      </Node>
    </BinaryTree>
    <BinaryTree type="DecisionTree" boostWeight="1.2967493796959201e-01" itree="21">
      <Node pos="s" depth="0" NCoef="0" IVar="2" Cut="2.5772829055786133e+00" cType="0" res="-9.9000000000000000e+01" rms="0.0000000000000000e+00" purity="5.2736920118331909e-01" nType="0">
        <Node pos="l" depth="1" NCoef="0" IVar="-1" Cut="1.6513801813125610e+00" cType="0" res="-9.9000000000000000e+01" rms="0.0000000000000000e+00" purity="8.1057655811309814e-01" nType="1"/>
        <Node pos="r" depth="1" NCoef="0" IVar="6" Cut="1.4365777587890625e+02" cType="1" res="-9.9000000000000000e+01" rms="0.0000000000000000e+00" purity="5.0020587444305420e-01" nType="0">
          <Node pos="l" depth="2" NCoef="0" IVar="6" Cut="4.8083267211914062e+01" cType="0" res="-9.9000000000000000e+01" rms="0.0000000000000000e+00" purity="5.0961989164352417e-01" nType="0">
            <Node pos="l" depth="3" NCoef="0" IVar="-1" Cut="0.0000000000000000e+00" cType="1" res="-9.9000000000000000e+01" rms="0.0000000000000000e+00" purity="5.3314864635467529e-01" nType="1"/>
            <Node pos="r" depth="3" NCoef="0" IVar="-1" Cut="0.0000000000000000e+00" cType="1" res="-9.9000000000000000e+01" rms="0.0000000000000000e+00" purity="4.6140354871749878e-01" nType="-1"/>
          </Node>
          <Node pos="r" depth="2" NCoef="0" IVar="-1" Cut="1.7950637340545654e+00" cType="1" res="-9.9000000000000000e+01" rms="0.0000000000000000e+00" purity="3.8898861408233643e-01" nType="-1"/>
        </Node>
      </Node>
    </BinaryTree>
    <BinaryTree type="DecisionTree" boostWeight="1.2263979267219831e-01" itree="22">
      <Node pos="s" depth="0" NCoef="0" IVar="2" Cut="2.5793716907501221e+00" cType="0" res="-9.9000000000000000e+01" rms="0.0000000000000000e+00" purity="5.1900470256805420e-01" nType="0">
        <Node pos="l" depth="1" NCoef="0" IVar="-1" Cut="1.6513801813125610e+00" cType="0" res="-9.9000000000000000e+01" rms="0.0000000000000000e+00" purity="8.0508911609649658e-01" nType="1"/>
        <Node pos="r" depth="1" NCoef="0" IVar="15" Cut="2.2440423965454102e+00" cType="1" res="-9.9000000000000000e+01" rms="0.0000000000000000e+00" purity="4.9257883429527283e-01" nType="0">
          <Node pos="l" depth="2" NCoef="0" IVar="12" Cut="8.9769220352172852e-01" cType="0" res="-9.9000000000000000e+01" rms="0.0000000000000000e+00" purity="5.4253947734832764e-01" nType="0">
            <Node pos="l" depth="3" NCoef="0" IVar="-1" Cut="0.0000000000000000e+00" cType="1" res="-9.9000000000000000e+01" rms="0.0000000000000000e+00" purity="5.7391929626464844e-01" nType="1"/>
            <Node pos="r" depth="3" NCoef="0" IVar="-1" Cut="0.0000000000000000e+00" cType="1" res="-9.9000000000000000e+01" rms="0.0000000000000000e+00" purity="4.9121764302253723e-01" nType="-1"/>
          </Node>
          <Node pos="r" depth="2" NCoef="0" IVar="-1" Cut="2.5428016185760498e+00" cType="1" res="-9.9000000000000000e+01" rms="0.0000000000000000e+00" purity="4.6702250838279724e-01" nType="-1"/>
        </Node>
      </Node>
    </BinaryTree>
    <BinaryTree type="DecisionTree" boostWeight="1.0870007112384482e-01" itree="23">
      <Node pos="s" depth="0" NCoef="0" IVar="2" Cut="2.2418549060821533e+00" cType="0" res="-9.9000000000000000e+01" rms="0.0000000000000000e+00" purity="5.2265781164169312e-01" nType="0">
        <Node pos="l" depth="1" NCoef="0" IVar="8" Cut="8.6854187011718750e+01" cType="0" res="-9.9000000000000000e+01" rms="0.0000000000000000e+00" purity="7.4398517608642578e-01" nType="0">
          <Node pos="l" depth="2" NCoef="0" IVar="-1" Cut="2.5432302951812744e+00" cType="1" res="-9.9000000000000000e+01" rms="0.0000000000000000e+00" purity="8.5239803791046143e-01" nType="1"/>
          <Node pos="r" depth="2" NCoef="0" IVar="-1" Cut="0.0000000000000000e+00" cType="1" res="-9.9000000000000000e+01" rms="0.0000000000000000e+00" purity="4.6934017539024353e-01" nType="-1"/>
        </Node>
        <Node pos="r" depth="1" NCoef="0" IVar="8" Cut="2.5642574310302734e+01" cType="0" res="-9.9000000000000000e+01" rms="0.0000000000000000e+00" purity="4.9407574534416199e-01" nType="0">
          <Node pos="l" depth="2" NCoef="0" IVar="11" Cut="5.9840744733810425e-01" cType="0" res="-9.9000000000000000e+01" rms="0.0000000000000000e+00" purity="5.0171184539794922e-01" nType="0">
            <Node pos="l" depth="3" NCoef="0" IVar="-1" Cut="0.0000000000000000e+00" cType="1" res="-9.9000000000000000e+01" rms="0.0000000000000000e+00" purity="5.1385957002639771e-01" nType="1"/>
            <Node pos="r" depth="3" NCoef="0" IVar="-1" Cut="0.0000000000000000e+00" cType="1" res="-9.9000000000000000e+01" rms="0.0000000000000000e+00" purity="4.4027298688888550e-01" nType="-1"/>
          </Node>
          <Node pos="r" depth="2" NCoef="0" IVar="-1" Cut="0.0000000000000000e+00" cType="1" res="-9.9000000000000000e+01" rms="0.0000000000000000e+00" purity="3.9705252647399902e-01" nType="-1"/>
        </Node>
      </Node>
    </BinaryTree>
    <BinaryTree type="DecisionTree" boostWeight="1.1736660850277231e-01" itree="24">
      <Node pos="s" depth="0" NCoef="0" IVar="2" Cut="2.1539835929870605e+00" cType="0" res="-9.9000000000000000e+01" rms="0.0000000000000000e+00" purity="5.1944482326507568e-01" nType="0">
        <Node pos="l" depth="1" NCoef="0" IVar="15" Cut="2.5432314872741699e+00" cType="1" res="-9.9000000000000000e+01" rms="0.0000000000000000e+00" purity="7.0495468378067017e-01" nType="0">
          <Node pos="l" depth="2" NCoef="0" IVar="-1" Cut="2.7211618423461914e+00" cType="0" res="-9.9000000000000000e+01" rms="0.0000000000000000e+00" purity="8.3561795949935913e-01" nType="1"/>
          <Node pos="r" depth="2" NCoef="0" IVar="16" Cut="1.9446151256561279e+00" cType="1" res="-9.9000000000000000e+01" rms="0.0000000000000000e+00" purity="5.4214781522750854e-01" nType="0">
            <Node pos="l" depth="3" NCoef="0" IVar="-1" Cut="0.0000000000000000e+00" cType="1" res="-9.9000000000000000e+01" rms="0.0000000000000000e+00" purity="6.6409987211227417e-01" nType="1"/>
            <Node pos="r" depth="3" NCoef="0" IVar="-1" Cut="0.0000000000000000e+00" cType="1" res="-9.9000000000000000e+01" rms="0.0000000000000000e+00" purity="4.1399827599525452e-01" nType="-1"/>
          </Node>
        </Node>
        <Node pos="r" depth="1" NCoef="0" IVar="16" Cut="2.6925990581512451e+00" cType="1" res="-9.9000000000000000e+01" rms="0.0000000000000000e+00" purity="4.9268013238906860e-01" nType="0">
          <Node pos="l" depth="2" NCoef="0" IVar="12" Cut="4.4884282350540161e-01" cType="0" res="-9.9000000000000000e+01" rms="0.0000000000000000e+00" purity="5.0496894121170044e-01" nType="0">
            <Node pos="l" depth="3" NCoef="0" IVar="-1" Cut="0.0000000000000000e+00" cType="1" res="-9.9000000000000000e+01" rms="0.0000000000000000e+00" purity="5.1758980751037598e-01" nType="1"/>
            <Node pos="r" depth="3" NCoef="0" IVar="-1" Cut="0.0000000000000000e+00" cType="1" res="-9.9000000000000000e+01" rms="0.0000000000000000e+00" purity="4.2730695009231567e-01" nType="-1"/>
          </Node>
          <Node pos="r" depth="2" NCoef="0" IVar="-1" Cut="2.6928029060363770e+00" cType="1" res="-9.9000000000000000e+01" rms="0.0000000000000000e+00" purity="4.3968155980110168e-01" nType="-1"/>
        </Node>
      </Node>
    </BinaryTree>
    <BinaryTree type="DecisionTree" boostWeight="1.2982997597951002e-01" itree="25">
      <Node pos="s" depth="0" NCoef="0" IVar="2" Cut="2.1485617160797119e+00" cType="0" res="-9.9000000000000000e+01" rms="0.0000000000000000e+00" purity="5.0856059789657593e-01" nType="0">
        <Node pos="l" depth="1" NCoef="0" IVar="8" Cut="9.1762077331542969e+01" cType="0" res="-9.9000000000000000e+01" rms="0.0000000000000000e+00" purity="7.0330303907394409e-01" nType="0">
          <Node pos="l" depth="2" NCoef="0" IVar="-1" Cut="3.1190903186798096e+00" cType="0" res="-9.9000000000000000e+01" rms="0.0000000000000000e+00" purity="8.1830823421478271e-01" nType="1"/>
          <Node pos="r" depth="2" NCoef="0" IVar="-1" Cut="0.0000000000000000e+00" cType="1" res="-9.9000000000000000e+01" rms="0.0000000000000000e+00" purity="4.6736025810241699e-01" nType="-1"/>
        </Node>
        <Node pos="r" depth="1" NCoef="0" IVar="11" Cut="1.9448133707046509e+00" cType="0" res="-9.9000000000000000e+01" rms="0.0000000000000000e+00" purity="4.8055091500282288e-01" nType="0">
          <Node pos="l" depth="2" NCoef="0" IVar="4" Cut="-1.5683853149414062e+02" cType="0" res="-9.9000000000000000e+01" rms="0.0000000000000000e+00" purity="5.1212811470031738e-01" nType="0">
            <Node pos="l" depth="3" NCoef="0" IVar="-1" Cut="0.0000000000000000e+00" cType="1" res="-9.9000000000000000e+01" rms="0.0000000000000000e+00" purity="5.2605056762695312e-01" nType="1"/>
            <Node pos="r" depth="3" NCoef="0" IVar="-1" Cut="0.0000000000000000e+00" cType="1" res="-9.9000000000000000e+01" rms="0.0000000000000000e+00" purity="3.9340698719024658e-01" nType="-1"/>
          </Node>
          <Node pos="r" depth="2" NCoef="0" IVar="-1" Cut="2.3933331966400146e+00" cType="1" res="-9.9000000000000000e+01" rms="0.0000000000000000e+00" purity="4.5217704772949219e-01" nType="-1"/>
        </Node>
      </Node>
    </BinaryTree>
    <BinaryTree type="DecisionTree" boostWeight="8.1117632862985276e-02" itree="26">
      <Node pos="s" depth="0" NCoef="0" IVar="2" Cut="3.2236611843109131e+00" cType="0" res="-9.9000000000000000e+01" rms="0.0000000000000000e+00" purity="5.1254492998123169e-01" nType="0">
        <Node pos="l" depth="1" NCoef="0" IVar="-1" Cut="0.0000000000000000e+00" cType="1" res="-9.9000000000000000e+01" rms="0.0000000000000000e+00" purity="8.2804208993911743e-01" nType="1"/>
        <Node pos="r" depth="1" NCoef="0" IVar="2" Cut="2.3043313026428223e+00" cType="0" res="-9.9000000000000000e+01" rms="0.0000000000000000e+00" purity="4.9727910757064819e-01" nType="0">
          <Node pos="l" depth="2" NCoef="0" IVar="-1" Cut="1.0864627838134766e+02" cType="1" res="-9.9000000000000000e+01" rms="0.0000000000000000e+00" purity="7.0298278331756592e-01" nType="1"/>
          <Node pos="r" depth="2" NCoef="0" IVar="-1" Cut="1.8639601135253906e+02" cType="1" res="-9.9000000000000000e+01" rms="0.0000000000000000e+00" purity="4.8444879055023193e-01" nType="-1"/>
        </Node>
      </Node>
    </BinaryTree>
    <BinaryTree type="DecisionTree" boostWeight="9.5671393198344459e-02" itree="27">
      <Node pos="s" depth="0" NCoef="0" IVar="2" Cut="2.5772829055786133e+00" cType="0" res="-9.9000000000000000e+01" rms="0.0000000000000000e+00" purity="5.1658040285110474e-01" nType="0">
        <Node pos="l" depth="1" NCoef="0" IVar="-1" Cut="1.6561419963836670e+00" cType="0" res="-9.9000000000000000e+01" rms="0.0000000000000000e+00" purity="7.7315664291381836e-01" nType="1"/>
        <Node pos="r" depth="1" NCoef="0" IVar="4" Cut="9.2725162506103516e+00" cType="1" res="-9.9000000000000000e+01" rms="0.0000000000000000e+00" purity="4.9444916844367981e-01" nType="0">
          <Node pos="l" depth="2" NCoef="0" IVar="15" Cut="2.0944433212280273e+00" cType="1" res="-9.9000000000000000e+01" rms="0.0000000000000000e+00" purity="5.0036174058914185e-01" nType="0">
            <Node pos="l" depth="3" NCoef="0" IVar="-1" Cut="0.0000000000000000e+00" cType="1" res="-9.9000000000000000e+01" rms="0.0000000000000000e+00" purity="5.4469203948974609e-01" nType="1"/>
            <Node pos="r" depth="3" NCoef="0" IVar="-1" Cut="0.0000000000000000e+00" cType="1" res="-9.9000000000000000e+01" rms="0.0000000000000000e+00" purity="4.8436743021011353e-01" nType="-1"/>
          </Node>
          <Node pos="r" depth="2" NCoef="0" IVar="-1" Cut="0.0000000000000000e+00" cType="1" res="-9.9000000000000000e+01" rms="0.0000000000000000e+00" purity="3.6127048730850220e-01" nType="-1"/>
        </Node>
      </Node>
    </BinaryTree>
    <BinaryTree type="DecisionTree" boostWeight="1.1562897956873024e-01" itree="28">
      <Node pos="s" depth="0" NCoef="0" IVar="2" Cut="2.5772829055786133e+00" cType="0" res="-9.9000000000000000e+01" rms="0.0000000000000000e+00" purity="5.2460563182830811e-01" nType="0">
        <Node pos="l" depth="1" NCoef="0" IVar="-1" Cut="-6.8205383300781250e+01" cType="0" res="-9.9000000000000000e+01" rms="0.0000000000000000e+00" purity="7.4881154298782349e-01" nType="1"/>
        <Node pos="r" depth="1" NCoef="0" IVar="8" Cut="4.3826251983642578e+01" cType="0" res="-9.9000000000000000e+01" rms="0.0000000000000000e+00" purity="5.0495254993438721e-01" nType="0">
          <Node pos="l" depth="2" NCoef="0" IVar="9" Cut="1.9396024942398071e+00" cType="1" res="-9.9000000000000000e+01" rms="0.0000000000000000e+00" purity="5.1927095651626587e-01" nType="0">
            <Node pos="l" depth="3" NCoef="0" IVar="-1" Cut="0.0000000000000000e+00" cType="1" res="-9.9000000000000000e+01" rms="0.0000000000000000e+00" purity="5.3292644023895264e-01" nType="1"/>
            <Node pos="r" depth="3" NCoef="0" IVar="-1" Cut="0.0000000000000000e+00" cType="1" res="-9.9000000000000000e+01" rms="0.0000000000000000e+00" purity="4.5496797561645508e-01" nType="-1"/>
          </Node>
          <Node pos="r" depth="2" NCoef="0" IVar="0" Cut="3.5938453674316406e+01" cType="0" res="-9.9000000000000000e+01" rms="0.0000000000000000e+00" purity="4.5486077666282654e-01" nType="0">
            <Node pos="l" depth="3" NCoef="0" IVar="-1" Cut="0.0000000000000000e+00" cType="1" res="-9.9000000000000000e+01" rms="0.0000000000000000e+00" purity="5.4325062036514282e-01" nType="1"/>
            <Node pos="r" depth="3" NCoef="0" IVar="-1" Cut="0.0000000000000000e+00" cType="1" res="-9.9000000000000000e+01" rms="0.0000000000000000e+00" purity="4.3517050147056580e-01" nType="-1"/>
          </Node>
        </Node>
      </Node>
    </BinaryTree>
    <BinaryTree type="DecisionTree" boostWeight="1.1071278772203752e-01" itree="29">
      <Node pos="s" depth="0" NCoef="0" IVar="2" Cut="2.5818135738372803e+00" cType="0" res="-9.9000000000000000e+01" rms="0.0000000000000000e+00" purity="5.3191733360290527e-01" nType="0">
        <Node pos="l" depth="1" NCoef="0" IVar="-1" Cut="-1.3801730346679688e+02" cType="0" res="-9.9000000000000000e+01" rms="0.0000000000000000e+00" purity="7.8085619211196899e-01" nType="1"/>
        <Node pos="r" depth="1" NCoef="0" IVar="12" Cut="1.9447877407073975e+00" cType="0" res="-9.9000000000000000e+01" rms="0.0000000000000000e+00" purity="5.1117223501205444e-01" nType="0">
          <Node pos="l" depth="2" NCoef="0" IVar="-1" Cut="1.4959697723388672e+00" cType="0" res="-9.9000000000000000e+01" rms="0.0000000000000000e+00" purity="5.4210579395294189e-01" nType="1"/>
          <Node pos="r" depth="2" NCoef="0" IVar="7" Cut="3.1100114822387695e+01" cType="0" res="-9.9000000000000000e+01" rms="0.0000000000000000e+00" purity="4.8905396461486816e-01" nType="0">
            <Node pos="l" depth="3" NCoef="0" IVar="-1" Cut="0.0000000000000000e+00" cType="1" res="-9.9000000000000000e+01" rms="0.0000000000000000e+00" purity="5.2011364698410034e-01" nType="1"/>
            <Node pos="r" depth="3" NCoef="0" IVar="-1" Cut="0.0000000000000000e+00" cType="1" res="-9.9000000000000000e+01" rms="0.0000000000000000e+00" purity="4.5431524515151978e-01" nType="-1"/>
          </Node>
        </Node>
      </Node>
    </BinaryTree>
    <BinaryTree type="DecisionTree" boostWeight="8.5417320946677547e-02" itree="30">
      <Node pos="s" depth="0" NCoef="0" IVar="2" Cut="2.7152433395385742e+00" cType="0" res="-9.9000000000000000e+01" rms="0.0000000000000000e+00" purity="5.1420348882675171e-01" nType="0">
        <Node pos="l" depth="1" NCoef="0" IVar="10" Cut="1.6555624008178711e+00" cType="0" res="-9.9000000000000000e+01" rms="0.0000000000000000e+00" purity="7.4399912357330322e-01" nType="0">
          <Node pos="l" depth="2" NCoef="0" IVar="-1" Cut="0.0000000000000000e+00" cType="1" res="-9.9000000000000000e+01" rms="0.0000000000000000e+00" purity="9.0025973320007324e-01" nType="1"/>
          <Node pos="r" depth="2" NCoef="0" IVar="-1" Cut="0.0000000000000000e+00" cType="1" res="-9.9000000000000000e+01" rms="0.0000000000000000e+00" purity="4.6794468164443970e-01" nType="-1"/>
        </Node>
        <Node pos="r" depth="1" NCoef="0" IVar="1" Cut="6.4280304908752441e+00" cType="0" res="-9.9000000000000000e+01" rms="0.0000000000000000e+00" purity="4.9709016084671021e-01" nType="0">
          <Node pos="l" depth="2" NCoef="0" IVar="-1" Cut="2.2240970134735107e+00" cType="0" res="-9.9000000000000000e+01" rms="0.0000000000000000e+00" purity="5.1532417535781860e-01" nType="1"/>
          <Node pos="r" depth="2" NCoef="0" IVar="-1" Cut="1.6819961071014404e+00" cType="1" res="-9.9000000000000000e+01" rms="0.0000000000000000e+00" purity="4.4252994656562805e-01" nType="-1"/>
        </Node>
      </Node>
    </BinaryTree>
    <BinaryTree type="DecisionTree" boostWeight="9.1109413473696152e-02" itree="31">
      <Node pos="s" depth="0" NCoef="0" IVar="2" Cut="2.7152433395385742e+00" cType="0" res="-9.9000000000000000e+01" rms="0.0000000000000000e+00" purity="5.1830542087554932e-01" nType="0">
        <Node pos="l" depth="1" NCoef="0" IVar="-1" Cut="4.4137763977050781e-01" cType="0" res="-9.9000000000000000e+01" rms="0.0000000000000000e+00" purity="7.6276803016662598e-01" nType="1"/>
        <Node pos="r" depth="1" NCoef="0" IVar="6" Cut="1.9178733825683594e+02" cType="1" res="-9.9000000000000000e+01" rms="0.0000000000000000e+00" purity="5.0049513578414917e-01" nType="0">
          <Node pos="l" depth="2" NCoef="0" IVar="6" Cut="3.6638633728027344e+01" cType="0" res="-9.9000000000000000e+01" rms="0.0000000000000000e+00" purity="5.0469356775283813e-01" nType="0">
            <Node pos="l" depth="3" NCoef="0" IVar="-1" Cut="0.0000000000000000e+00" cType="1" res="-9.9000000000000000e+01" rms="0.0000000000000000e+00" purity="5.1960289478302002e-01" nType="1"/>
            <Node pos="r" depth="3" NCoef="0" IVar="-1" Cut="0.0000000000000000e+00" cType="1" res="-9.9000000000000000e+01" rms="0.0000000000000000e+00" purity="4.4831991195678711e-01" nType="-1"/>
          </Node>
          <Node pos="r" depth="2" NCoef="0" IVar="-1" Cut="0.0000000000000000e+00" cType="1" res="-9.9000000000000000e+01" rms="0.0000000000000000e+00" purity="3.6252591013908386e-01" nType="-1"/>
        </Node>
      </Node>
    </BinaryTree>
    <BinaryTree type="DecisionTree" boostWeight="8.7023973465215232e-02" itree="32">
      <Node pos="s" depth="0" NCoef="0" IVar="2" Cut="2.4608843326568604e+00" cType="0" res="-9.9000000000000000e+01" rms="0.0000000000000000e+00" purity="5.0339692831039429e-01" nType="0">
        <Node pos="l" depth="1" NCoef="0" IVar="-1" Cut="-1.2177861785888672e+02" cType="0" res="-9.9000000000000000e+01" rms="0.0000000000000000e+00" purity="7.3489159345626831e-01" nType="1"/>
        <Node pos="r" depth="1" NCoef="0" IVar="11" Cut="4.4881060719490051e-01" cType="0" res="-9.9000000000000000e+01" rms="0.0000000000000000e+00" purity="4.8232454061508179e-01" nType="0">
          <Node pos="l" depth="2" NCoef="0" IVar="8" Cut="1.4204881286621094e+02" cType="0" res="-9.9000000000000000e+01" rms="0.0000000000000000e+00" purity="4.9078050255775452e-01" nType="0">
            <Node pos="l" depth="3" NCoef="0" IVar="-1" Cut="0.0000000000000000e+00" cType="1" res="-9.9000000000000000e+01" rms="0.0000000000000000e+00" purity="6.4195787906646729e-01" nType="1"/>
            <Node pos="r" depth="3" NCoef="0" IVar="-1" Cut="0.0000000000000000e+00" cType="1" res="-9.9000000000000000e+01" rms="0.0000000000000000e+00" purity="4.8562529683113098e-01" nType="-1"/>
          </Node>
          <Node pos="r" depth="2" NCoef="0" IVar="-1" Cut="3.9019302368164062e+01" cType="1" res="-9.9000000000000000e+01" rms="0.0000000000000000e+00" purity="4.1652661561965942e-01" nType="-1"/>
        </Node>
      </Node>
    </BinaryTree>
    <BinaryTree type="DecisionTree" boostWeight="5.9508585734754336e-02" itree="33">
      <Node pos="s" depth="0" NCoef="0" IVar="2" Cut="3.2212193012237549e+00" cType="0" res="-9.9000000000000000e+01" rms="0.0000000000000000e+00" purity="5.0923180580139160e-01" nType="0">
        <Node pos="l" depth="1" NCoef="0" IVar="-1" Cut="0.0000000000000000e+00" cType="1" res="-9.9000000000000000e+01" rms="0.0000000000000000e+00" purity="7.4581140279769897e-01" nType="1"/>
        <Node pos="r" depth="1" NCoef="0" IVar="6" Cut="1.9271875000000000e+02" cType="1" res="-9.9000000000000000e+01" rms="0.0000000000000000e+00" purity="4.9815317988395691e-01" nType="0">
          <Node pos="l" depth="2" NCoef="0" IVar="2" Cut="2.3034439086914062e+00" cType="0" res="-9.9000000000000000e+01" rms="0.0000000000000000e+00" purity="5.0371956825256348e-01" nType="0">
            <Node pos="l" depth="3" NCoef="0" IVar="-1" Cut="0.0000000000000000e+00" cType="1" res="-9.9000000000000000e+01" rms="0.0000000000000000e+00" purity="6.6055440902709961e-01" nType="1"/>
            <Node pos="r" depth="3" NCoef="0" IVar="-1" Cut="0.0000000000000000e+00" cType="1" res="-9.9000000000000000e+01" rms="0.0000000000000000e+00" purity="4.9425390362739563e-01" nType="-1"/>
          </Node>
          <Node pos="r" depth="2" NCoef="0" IVar="-1" Cut="0.0000000000000000e+00" cType="1" res="-9.9000000000000000e+01" rms="0.0000000000000000e+00" purity="3.0955588817596436e-01" nType="-1"/>
        </Node>
      </Node>
    </BinaryTree>
    <BinaryTree type="DecisionTree" boostWeight="1.0424841339419386e-01" itree="34">
      <Node pos="s" depth="0" NCoef="0" IVar="2" Cut="2.1485617160797119e+00" cType="0" res="-9.9000000000000000e+01" rms="0.0000000000000000e+00" purity="5.2160459756851196e-01" nType="0">
        <Node pos="l" depth="1" NCoef="0" IVar="8" Cut="8.6854187011718750e+01" cType="0" res="-9.9000000000000000e+01" rms="0.0000000000000000e+00" purity="6.7277204990386963e-01" nType="0">
          <Node pos="l" depth="2" NCoef="0" IVar="-1" Cut="2.3936848640441895e+00" cType="1" res="-9.9000000000000000e+01" rms="0.0000000000000000e+00" purity="7.7404242753982544e-01" nType="1"/>
          <Node pos="r" depth="2" NCoef="0" IVar="-1" Cut="0.0000000000000000e+00" cType="1" res="-9.9000000000000000e+01" rms="0.0000000000000000e+00" purity="4.4889020919799805e-01" nType="-1"/>
        </Node>
        <Node pos="r" depth="1" NCoef="0" IVar="12" Cut="1.7952064275741577e+00" cType="0" res="-9.9000000000000000e+01" rms="0.0000000000000000e+00" purity="5.0165539979934692e-01" nType="0">
          <Node pos="l" depth="2" NCoef="0" IVar="6" Cut="1.4367422485351562e+02" cType="1" res="-9.9000000000000000e+01" rms="0.0000000000000000e+00" purity="5.2905488014221191e-01" nType="0">
            <Node pos="l" depth="3" NCoef="0" IVar="-1" Cut="0.0000000000000000e+00" cType="1" res="-9.9000000000000000e+01" rms="0.0000000000000000e+00" purity="5.3945916891098022e-01" nType="1"/>
            <Node pos="r" depth="3" NCoef="0" IVar="-1" Cut="0.0000000000000000e+00" cType="1" res="-9.9000000000000000e+01" rms="0.0000000000000000e+00" purity="4.0359425544738770e-01" nType="-1"/>
          </Node>
          <Node pos="r" depth="2" NCoef="0" IVar="-1" Cut="3.1002370834350586e+01" cType="1" res="-9.9000000000000000e+01" rms="0.0000000000000000e+00" purity="4.7841638326644897e-01" nType="-1"/>
        </Node>
      </Node>
    </BinaryTree>
    <BinaryTree type="DecisionTree" boostWeight="8.4787892322550518e-02" itree="35">
      <Node pos="s" depth="0" NCoef="0" IVar="2" Cut="2.7203798294067383e+00" cType="0" res="-9.9000000000000000e+01" rms="0.0000000000000000e+00" purity="5.2262932062149048e-01" nType="0">
        <Node pos="l" depth="1" NCoef="0" IVar="-1" Cut="5.9007793664932251e-01" cType="0" res="-9.9000000000000000e+01" rms="0.0000000000000000e+00" purity="7.7631103992462158e-01" nType="1"/>
        <Node pos="r" depth="1" NCoef="0" IVar="4" Cut="-1.3210372924804688e+02" cType="0" res="-9.9000000000000000e+01" rms="0.0000000000000000e+00" purity="5.0569951534271240e-01" nType="0">
          <Node pos="l" depth="2" NCoef="0" IVar="13" Cut="9.8628479003906250e+01" cType="0" res="-9.9000000000000000e+01" rms="0.0000000000000000e+00" purity="5.1320940256118774e-01" nType="0">
            <Node pos="l" depth="3" NCoef="0" IVar="-1" Cut="0.0000000000000000e+00" cType="1" res="-9.9000000000000000e+01" rms="0.0000000000000000e+00" purity="5.6074935197830200e-01" nType="1"/>
            <Node pos="r" depth="3" NCoef="0" IVar="-1" Cut="0.0000000000000000e+00" cType="1" res="-9.9000000000000000e+01" rms="0.0000000000000000e+00" purity="4.9209284782409668e-01" nType="-1"/>
          </Node>
          <Node pos="r" depth="2" NCoef="0" IVar="-1" Cut="1.0444207191467285e+00" cType="1" res="-9.9000000000000000e+01" rms="0.0000000000000000e+00" purity="4.5702025294303894e-01" nType="-1"/>
        </Node>
      </Node>
    </BinaryTree>
    <BinaryTree type="DecisionTree" boostWeight="8.6019217994489125e-02" itree="36">
      <Node pos="s" depth="0" NCoef="0" IVar="2" Cut="2.5824794769287109e+00" cType="0" res="-9.9000000000000000e+01" rms="0.0000000000000000e+00" purity="5.2672940492630005e-01" nType="0">
        <Node pos="l" depth="1" NCoef="0" IVar="-1" Cut="-1.0379138183593750e+02" cType="0" res="-9.9000000000000000e+01" rms="0.0000000000000000e+00" purity="7.0113986730575562e-01" nType="1"/>
        <Node pos="r" depth="1" NCoef="0" IVar="11" Cut="8.9760482311248779e-01" cType="0" res="-9.9000000000000000e+01" rms="0.0000000000000000e+00" purity="5.1262015104293823e-01" nType="0">
          <Node pos="l" depth="2" NCoef="0" IVar="-1" Cut="1.1012870788574219e+02" cType="0" res="-9.9000000000000000e+01" rms="0.0000000000000000e+00" purity="5.2759391069412231e-01" nType="1"/>
          <Node pos="r" depth="2" NCoef="0" IVar="-1" Cut="4.1023571014404297e+01" cType="1" res="-9.9000000000000000e+01" rms="0.0000000000000000e+00" purity="4.6129688620567322e-01" nType="-1"/>
        </Node>
      </Node>
    </BinaryTree>
    <BinaryTree type="DecisionTree" boostWeight="5.6324963859044404e-02" itree="37">
      <Node pos="s" depth="0" NCoef="0" IVar="2" Cut="3.2212193012237549e+00" cType="0" res="-9.9000000000000000e+01" rms="0.0000000000000000e+00" purity="5.1965987682342529e-01" nType="0">
        <Node pos="l" depth="1" NCoef="0" IVar="-1" Cut="0.0000000000000000e+00" cType="1" res="-9.9000000000000000e+01" rms="0.0000000000000000e+00" purity="7.6385700702667236e-01" nType="1"/>
        <Node pos="r" depth="1" NCoef="0" IVar="2" Cut="2.3017973899841309e+00" cType="0" res="-9.9000000000000000e+01" rms="0.0000000000000000e+00" purity="5.0928848981857300e-01" nType="0">
          <Node pos="l" depth="2" NCoef="0" IVar="15" Cut="2.5433411598205566e+00" cType="1" res="-9.9000000000000000e+01" rms="0.0000000000000000e+00" purity="6.2154859304428101e-01" nType="0">
            <Node pos="l" depth="3" NCoef="0" IVar="-1" Cut="0.0000000000000000e+00" cType="1" res="-9.9000000000000000e+01" rms="0.0000000000000000e+00" purity="7.5715857744216919e-01" nType="1"/>
            <Node pos="r" depth="3" NCoef="0" IVar="-1" Cut="0.0000000000000000e+00" cType="1" res="-9.9000000000000000e+01" rms="0.0000000000000000e+00" purity="4.7649472951889038e-01" nType="-1"/>
          </Node>
          <Node pos="r" depth="2" NCoef="0" IVar="14" Cut="1.5915975952148438e+02" cType="1" res="-9.9000000000000000e+01" rms="0.0000000000000000e+00" purity="5.0237590074539185e-01" nType="0">
            <Node pos="l" depth="3" NCoef="0" IVar="-1" Cut="0.0000000000000000e+00" cType="1" res="-9.9000000000000000e+01" rms="0.0000000000000000e+00" purity="5.0654780864715576e-01" nType="1"/>
            <Node pos="r" depth="3" NCoef="0" IVar="-1" Cut="0.0000000000000000e+00" cType="1" res="-9.9000000000000000e+01" rms="0.0000000000000000e+00" purity="3.5723218321800232e-01" nType="-1"/>
          </Node>
        </Node>
      </Node>
    </BinaryTree>
    <BinaryTree type="DecisionTree" boostWeight="4.0770142669733056e-02" itree="38">
      <Node pos="s" depth="0" NCoef="0" IVar="2" Cut="3.2212193012237549e+00" cType="0" res="-9.9000000000000000e+01" rms="0.0000000000000000e+00" purity="5.0813078880310059e-01" nType="0">
        <Node pos="l" depth="1" NCoef="0" IVar="-1" Cut="0.0000000000000000e+00" cType="1" res="-9.9000000000000000e+01" rms="0.0000000000000000e+00" purity="7.1111196279525757e-01" nType="1"/>
        <Node pos="r" depth="1" NCoef="0" IVar="4" Cut="-1.9750421142578125e+02" cType="0" res="-9.9000000000000000e+01" rms="0.0000000000000000e+00" purity="4.9907481670379639e-01" nType="0">
          <Node pos="l" depth="2" NCoef="0" IVar="2" Cut="2.6087853908538818e+00" cType="0" res="-9.9000000000000000e+01" rms="0.0000000000000000e+00" purity="5.0423735380172729e-01" nType="0">
            <Node pos="l" depth="3" NCoef="0" IVar="-1" Cut="0.0000000000000000e+00" cType="1" res="-9.9000000000000000e+01" rms="0.0000000000000000e+00" purity="7.0425093173980713e-01" nType="1"/>
            <Node pos="r" depth="3" NCoef="0" IVar="-1" Cut="0.0000000000000000e+00" cType="1" res="-9.9000000000000000e+01" rms="0.0000000000000000e+00" purity="4.9852490425109863e-01" nType="-1"/>
          </Node>
          <Node pos="r" depth="2" NCoef="0" IVar="-1" Cut="0.0000000000000000e+00" cType="1" res="-9.9000000000000000e+01" rms="0.0000000000000000e+00" purity="3.5936409235000610e-01" nType="-1"/>
        </Node>
      </Node>
    </BinaryTree>
    <BinaryTree type="DecisionTree" boostWeight="2.2802213176801714e-01" itree="39">
      <Node pos="s" depth="0" NCoef="0" IVar="2" Cut="2.5797247886657715e+00" cType="0" res="-9.9000000000000000e+01" rms="0.0000000000000000e+00" purity="5.2237075567245483e-01" nType="0">
        <Node pos="l" depth="1" NCoef="0" IVar="1" Cut="1.4034098625183105e+01" cType="0" res="-9.9000000000000000e+01" rms="0.0000000000000000e+00" purity="6.8842798471450806e-01" nType="0">
          <Node pos="l" depth="2" NCoef="0" IVar="-1" Cut="0.0000000000000000e+00" cType="1" res="-9.9000000000000000e+01" rms="0.0000000000000000e+00" purity="8.4997218847274780e-01" nType="1"/>
          <Node pos="r" depth="2" NCoef="0" IVar="-1" Cut="0.0000000000000000e+00" cType="1" res="-9.9000000000000000e+01" rms="0.0000000000000000e+00" purity="3.7984985113143921e-01" nType="-1"/>
        </Node>
        <Node pos="r" depth="1" NCoef="0" IVar="13" Cut="1.9379302978515625e+02" cType="1" res="-9.9000000000000000e+01" rms="0.0000000000000000e+00" purity="5.0912427902221680e-01" nType="0">
          <Node pos="l" depth="2" NCoef="0" IVar="14" Cut="4.5475280761718750e+01" cType="0" res="-9.9000000000000000e+01" rms="0.0000000000000000e+00" purity="5.1535844802856445e-01" nType="0">
            <Node pos="l" depth="3" NCoef="0" IVar="-1" Cut="0.0000000000000000e+00" cType="1" res="-9.9000000000000000e+01" rms="0.0000000000000000e+00" purity="6.0591012239456177e-01" nType="1"/>
            <Node pos="r" depth="3" NCoef="0" IVar="-1" Cut="0.0000000000000000e+00" cType="1" res="-9.9000000000000000e+01" rms="0.0000000000000000e+00" purity="4.0694263577461243e-01" nType="-1"/>
          </Node>
          <Node pos="r" depth="2" NCoef="0" IVar="9" Cut="8.9528447389602661e-01" cType="1" res="-9.9000000000000000e+01" rms="0.0000000000000000e+00" purity="4.1958516836166382e-01" nType="0">
            <Node pos="l" depth="3" NCoef="0" IVar="-1" Cut="0.0000000000000000e+00" cType="1" res="-9.9000000000000000e+01" rms="0.0000000000000000e+00" purity="5.0866675376892090e-01" nType="1"/>
            <Node pos="r" depth="3" NCoef="0" IVar="-1" Cut="0.0000000000000000e+00" cType="1" res="-9.9000000000000000e+01" rms="0.0000000000000000e+00" purity="3.1250774860382080e-01" nType="-1"/>
          </Node>
        </Node>
      </Node>
    </BinaryTree>
    <BinaryTree type="DecisionTree" boostWeight="6.4111648546534630e-02" itree="40">
      <Node pos="s" depth="0" NCoef="0" IVar="2" Cut="2.7176852226257324e+00" cType="0" res="-9.9000000000000000e+01" rms="0.0000000000000000e+00" purity="5.0511562824249268e-01" nType="0">
        <Node pos="l" depth="1" NCoef="0" IVar="-1" Cut="-1.2205171966552734e+02" cType="0" res="-9.9000000000000000e+01" rms="0.0000000000000000e+00" purity="7.0847195386886597e-01" nType="1"/>
        <Node pos="r" depth="1" NCoef="0" IVar="6" Cut="1.9257589721679688e+02" cType="1" res="-9.9000000000000000e+01" rms="0.0000000000000000e+00" purity="4.9175450205802917e-01" nType="0">
          <Node pos="l" depth="2" NCoef="0" IVar="8" Cut="1.1171932220458984e+02" cType="0" res="-9.9000000000000000e+01" rms="0.0000000000000000e+00" purity="4.9617737531661987e-01" nType="0">
            <Node pos="l" depth="3" NCoef="0" IVar="-1" Cut="0.0000000000000000e+00" cType="1" res="-9.9000000000000000e+01" rms="0.0000000000000000e+00" purity="5.5033332109451294e-01" nType="1"/>
            <Node pos="r" depth="3" NCoef="0" IVar="-1" Cut="0.0000000000000000e+00" cType="1" res="-9.9000000000000000e+01" rms="0.0000000000000000e+00" purity="4.8847892880439758e-01" nType="-1"/>
          </Node>
          <Node pos="r" depth="2" NCoef="0" IVar="-1" Cut="0.0000000000000000e+00" cType="1" res="-9.9000000000000000e+01" rms="0.0000000000000000e+00" purity="3.4069576859474182e-01" nType="-1"/>
        </Node>
      </Node>
    </BinaryTree>
    <BinaryTree type="DecisionTree" boostWeight="7.0352277742000133e-02" itree="41">
      <Node pos="s" depth="0" NCoef="0" IVar="2" Cut="2.7194690704345703e+00" cType="0" res="-9.9000000000000000e+01" rms="0.0000000000000000e+00" purity="5.1640015840530396e-01" nType="0">
        <Node pos="l" depth="1" NCoef="0" IVar="1" Cut="2.7168481826782227e+01" cType="0" res="-9.9000000000000000e+01" rms="0.0000000000000000e+00" purity="6.7338818311691284e-01" nType="0">
          <Node pos="l" depth="2" NCoef="0" IVar="-1" Cut="0.0000000000000000e+00" cType="1" res="-9.9000000000000000e+01" rms="0.0000000000000000e+00" purity="8.4272032976150513e-01" nType="1"/>
          <Node pos="r" depth="2" NCoef="0" IVar="-1" Cut="0.0000000000000000e+00" cType="1" res="-9.9000000000000000e+01" rms="0.0000000000000000e+00" purity="4.8557844758033752e-01" nType="-1"/>
        </Node>
        <Node pos="r" depth="1" NCoef="0" IVar="6" Cut="1.9257589721679688e+02" cType="1" res="-9.9000000000000000e+01" rms="0.0000000000000000e+00" purity="5.0558817386627197e-01" nType="0">
          <Node pos="l" depth="2" NCoef="0" IVar="6" Cut="1.8460390090942383e+01" cType="0" res="-9.9000000000000000e+01" rms="0.0000000000000000e+00" purity="5.1052153110504150e-01" nType="0">
            <Node pos="l" depth="3" NCoef="0" IVar="-1" Cut="0.0000000000000000e+00" cType="1" res="-9.9000000000000000e+01" rms="0.0000000000000000e+00" purity="5.1690369844436646e-01" nType="1"/>
            <Node pos="r" depth="3" NCoef="0" IVar="-1" Cut="0.0000000000000000e+00" cType="1" res="-9.9000000000000000e+01" rms="0.0000000000000000e+00" purity="4.3713140487670898e-01" nType="-1"/>
          </Node>
          <Node pos="r" depth="2" NCoef="0" IVar="-1" Cut="0.0000000000000000e+00" cType="1" res="-9.9000000000000000e+01" rms="0.0000000000000000e+00" purity="3.3228355646133423e-01" nType="-1"/>
        </Node>
      </Node>
    </BinaryTree>
    <BinaryTree type="DecisionTree" boostWeight="8.5491013907371960e-02" itree="42">
      <Node pos="s" depth="0" NCoef="0" IVar="2" Cut="2.7226803302764893e+00" cType="0" res="-9.9000000000000000e+01" rms="0.0000000000000000e+00" purity="5.0739884376525879e-01" nType="0">
        <Node pos="l" depth="1" NCoef="0" IVar="7" Cut="4.1684894561767578e+01" cType="0" res="-9.9000000000000000e+01" rms="0.0000000000000000e+00" purity="7.0539331436157227e-01" nType="0">
          <Node pos="l" depth="2" NCoef="0" IVar="-1" Cut="0.0000000000000000e+00" cType="1" res="-9.9000000000000000e+01" rms="0.0000000000000000e+00" purity="8.8884776830673218e-01" nType="1"/>
          <Node pos="r" depth="2" NCoef="0" IVar="-1" Cut="0.0000000000000000e+00" cType="1" res="-9.9000000000000000e+01" rms="0.0000000000000000e+00" purity="4.9893775582313538e-01" nType="-1"/>
        </Node>
        <Node pos="r" depth="1" NCoef="0" IVar="11" Cut="5.9840548038482666e-01" cType="0" res="-9.9000000000000000e+01" rms="0.0000000000000000e+00" purity="4.9449589848518372e-01" nType="0">
          <Node pos="l" depth="2" NCoef="0" IVar="8" Cut="1.1004778289794922e+02" cType="0" res="-9.9000000000000000e+01" rms="0.0000000000000000e+00" purity="5.0503522157669067e-01" nType="0">
            <Node pos="l" depth="3" NCoef="0" IVar="-1" Cut="0.0000000000000000e+00" cType="1" res="-9.9000000000000000e+01" rms="0.0000000000000000e+00" purity="6.0950875282287598e-01" nType="1"/>
            <Node pos="r" depth="3" NCoef="0" IVar="-1" Cut="0.0000000000000000e+00" cType="1" res="-9.9000000000000000e+01" rms="0.0000000000000000e+00" purity="4.9161088466644287e-01" nType="-1"/>
          </Node>
          <Node pos="r" depth="2" NCoef="0" IVar="0" Cut="3.3075294494628906e+01" cType="1" res="-9.9000000000000000e+01" rms="0.0000000000000000e+00" purity="4.3801027536392212e-01" nType="0">
            <Node pos="l" depth="3" NCoef="0" IVar="-1" Cut="0.0000000000000000e+00" cType="1" res="-9.9000000000000000e+01" rms="0.0000000000000000e+00" purity="5.3336733579635620e-01" nType="1"/>
            <Node pos="r" depth="3" NCoef="0" IVar="-1" Cut="0.0000000000000000e+00" cType="1" res="-9.9000000000000000e+01" rms="0.0000000000000000e+00" purity="3.3498936891555786e-01" nType="-1"/>
          </Node>
        </Node>
      </Node>
    </BinaryTree>
    <BinaryTree type="DecisionTree" boostWeight="6.4938140708966183e-02" itree="43">
      <Node pos="s" depth="0" NCoef="0" IVar="2" Cut="2.7202334403991699e+00" cType="0" res="-9.9000000000000000e+01" rms="0.0000000000000000e+00" purity="5.2012950181961060e-01" nType="0">
        <Node pos="l" depth="1" NCoef="0" IVar="-1" Cut="-1.0700373077392578e+02" cType="0" res="-9.9000000000000000e+01" rms="0.0000000000000000e+00" purity="7.2145020961761475e-01" nType="1"/>
        <Node pos="r" depth="1" NCoef="0" IVar="2" Cut="2.3329169750213623e+00" cType="0" res="-9.9000000000000000e+01" rms="0.0000000000000000e+00" purity="5.0717693567276001e-01" nType="0">
          <Node pos="l" depth="2" NCoef="0" IVar="-1" Cut="0.0000000000000000e+00" cType="1" res="-9.9000000000000000e+01" rms="0.0000000000000000e+00" purity="6.5771907567977905e-01" nType="1"/>
          <Node pos="r" depth="2" NCoef="0" IVar="6" Cut="1.2631699371337891e+02" cType="1" res="-9.9000000000000000e+01" rms="0.0000000000000000e+00" purity="5.0285714864730835e-01" nType="0">
            <Node pos="l" depth="3" NCoef="0" IVar="-1" Cut="0.0000000000000000e+00" cType="1" res="-9.9000000000000000e+01" rms="0.0000000000000000e+00" purity="5.1093178987503052e-01" nType="1"/>
            <Node pos="r" depth="3" NCoef="0" IVar="-1" Cut="0.0000000000000000e+00" cType="1" res="-9.9000000000000000e+01" rms="0.0000000000000000e+00" purity="4.4527655839920044e-01" nType="-1"/>
          </Node>
        </Node>
      </Node>
    </BinaryTree>
    <BinaryTree type="DecisionTree" boostWeight="8.0732226814135680e-02" itree="44">
      <Node pos="s" depth="0" NCoef="0" IVar="2" Cut="2.5797247886657715e+00" cType="0" res="-9.9000000000000000e+01" rms="0.0000000000000000e+00" purity="5.1166057586669922e-01" nType="0">
        <Node pos="l" depth="1" NCoef="0" IVar="-1" Cut="-1.3801730346679688e+02" cType="0" res="-9.9000000000000000e+01" rms="0.0000000000000000e+00" purity="7.0595121383666992e-01" nType="1"/>
        <Node pos="r" depth="1" NCoef="0" IVar="11" Cut="4.4881060719490051e-01" cType="0" res="-9.9000000000000000e+01" rms="0.0000000000000000e+00" purity="4.9766406416893005e-01" nType="0">
          <Node pos="l" depth="2" NCoef="0" IVar="12" Cut="1.1967806816101074e+00" cType="0" res="-9.9000000000000000e+01" rms="0.0000000000000000e+00" purity="5.0500726699829102e-01" nType="0">
            <Node pos="l" depth="3" NCoef="0" IVar="-1" Cut="0.0000000000000000e+00" cType="1" res="-9.9000000000000000e+01" rms="0.0000000000000000e+00" purity="5.2335149049758911e-01" nType="1"/>
            <Node pos="r" depth="3" NCoef="0" IVar="-1" Cut="0.0000000000000000e+00" cType="1" res="-9.9000000000000000e+01" rms="0.0000000000000000e+00" purity="4.7574466466903687e-01" nType="-1"/>
          </Node>
          <Node pos="r" depth="2" NCoef="0" IVar="0" Cut="3.9979007720947266e+01" cType="1" res="-9.9000000000000000e+01" rms="0.0000000000000000e+00" purity="4.4308871030807495e-01" nType="0">
            <Node pos="l" depth="3" NCoef="0" IVar="-1" Cut="0.0000000000000000e+00" cType="1" res="-9.9000000000000000e+01" rms="0.0000000000000000e+00" purity="5.0453865528106689e-01" nType="1"/>
            <Node pos="r" depth="3" NCoef="0" IVar="-1" Cut="0.0000000000000000e+00" cType="1" res="-9.9000000000000000e+01" rms="0.0000000000000000e+00" purity="3.2638555765151978e-01" nType="-1"/>
          </Node>
        </Node>
      </Node>
    </BinaryTree>
    <BinaryTree type="DecisionTree" boostWeight="9.1722857578445977e-02" itree="45">
      <Node pos="s" depth="0" NCoef="0" IVar="2" Cut="2.7176852226257324e+00" cType="0" res="-9.9000000000000000e+01" rms="0.0000000000000000e+00" purity="5.0933766365051270e-01" nType="0">
        <Node pos="l" depth="1" NCoef="0" IVar="9" Cut="4.4723317027091980e-01" cType="0" res="-9.9000000000000000e+01" rms="0.0000000000000000e+00" purity="6.8413460254669189e-01" nType="0">
          <Node pos="l" depth="2" NCoef="0" IVar="-1" Cut="0.0000000000000000e+00" cType="1" res="-9.9000000000000000e+01" rms="0.0000000000000000e+00" purity="8.1912797689437866e-01" nType="1"/>
          <Node pos="r" depth="2" NCoef="0" IVar="-1" Cut="0.0000000000000000e+00" cType="1" res="-9.9000000000000000e+01" rms="0.0000000000000000e+00" purity="4.9188983440399170e-01" nType="-1"/>
        </Node>
        <Node pos="r" depth="1" NCoef="0" IVar="11" Cut="1.4960181713104248e+00" cType="0" res="-9.9000000000000000e+01" rms="0.0000000000000000e+00" purity="4.9788579344749451e-01" nType="0">
          <Node pos="l" depth="2" NCoef="0" IVar="8" Cut="2.1138647079467773e+01" cType="0" res="-9.9000000000000000e+01" rms="0.0000000000000000e+00" purity="5.1539498567581177e-01" nType="0">
            <Node pos="l" depth="3" NCoef="0" IVar="-1" Cut="0.0000000000000000e+00" cType="1" res="-9.9000000000000000e+01" rms="0.0000000000000000e+00" purity="5.2335178852081299e-01" nType="1"/>
            <Node pos="r" depth="3" NCoef="0" IVar="-1" Cut="0.0000000000000000e+00" cType="1" res="-9.9000000000000000e+01" rms="0.0000000000000000e+00" purity="4.0745836496353149e-01" nType="-1"/>
          </Node>
          <Node pos="r" depth="2" NCoef="0" IVar="0" Cut="3.9532375335693359e+01" cType="1" res="-9.9000000000000000e+01" rms="0.0000000000000000e+00" purity="4.6945309638977051e-01" nType="0">
            <Node pos="l" depth="3" NCoef="0" IVar="-1" Cut="0.0000000000000000e+00" cType="1" res="-9.9000000000000000e+01" rms="0.0000000000000000e+00" purity="5.1429057121276855e-01" nType="1"/>
            <Node pos="r" depth="3" NCoef="0" IVar="-1" Cut="0.0000000000000000e+00" cType="1" res="-9.9000000000000000e+01" rms="0.0000000000000000e+00" purity="3.8225609064102173e-01" nType="-1"/>
          </Node>
        </Node>
      </Node>
    </BinaryTree>
    <BinaryTree type="DecisionTree" boostWeight="4.3890817625083213e-02" itree="46">
      <Node pos="s" depth="0" NCoef="0" IVar="2" Cut="2.7152433395385742e+00" cType="0" res="-9.9000000000000000e+01" rms="0.0000000000000000e+00" purity="5.0663954019546509e-01" nType="0">
        <Node pos="l" depth="1" NCoef="0" IVar="-1" Cut="2.5431864261627197e+00" cType="1" res="-9.9000000000000000e+01" rms="0.0000000000000000e+00" purity="7.0667731761932373e-01" nType="1"/>
        <Node pos="r" depth="1" NCoef="0" IVar="6" Cut="1.9257589721679688e+02" cType="1" res="-9.9000000000000000e+01" rms="0.0000000000000000e+00" purity="4.9430653452873230e-01" nType="0">
          <Node pos="l" depth="2" NCoef="0" IVar="12" Cut="1.4971244335174561e-01" cType="0" res="-9.9000000000000000e+01" rms="0.0000000000000000e+00" purity="4.9824687838554382e-01" nType="0">
            <Node pos="l" depth="3" NCoef="0" IVar="-1" Cut="0.0000000000000000e+00" cType="1" res="-9.9000000000000000e+01" rms="0.0000000000000000e+00" purity="5.0262391567230225e-01" nType="1"/>
            <Node pos="r" depth="3" NCoef="0" IVar="-1" Cut="0.0000000000000000e+00" cType="1" res="-9.9000000000000000e+01" rms="0.0000000000000000e+00" purity="4.1625073552131653e-01" nType="-1"/>
          </Node>
          <Node pos="r" depth="2" NCoef="0" IVar="-1" Cut="0.0000000000000000e+00" cType="1" res="-9.9000000000000000e+01" rms="0.0000000000000000e+00" purity="3.5186654329299927e-01" nType="-1"/>
        </Node>
      </Node>
    </BinaryTree>
    <BinaryTree type="DecisionTree" boostWeight="7.9876452463757019e-02" itree="47">
      <Node pos="s" depth="0" NCoef="0" IVar="0" Cut="9.8359573364257812e+01" cType="0" res="-9.9000000000000000e+01" rms="0.0000000000000000e+00" purity="5.0407361984252930e-01" nType="0">
        <Node pos="l" depth="1" NCoef="0" IVar="-1" Cut="0.0000000000000000e+00" cType="1" res="-9.9000000000000000e+01" rms="0.0000000000000000e+00" purity="6.9980734586715698e-01" nType="1"/>
        <Node pos="r" depth="1" NCoef="0" IVar="7" Cut="4.6650173187255859e+01" cType="0" res="-9.9000000000000000e+01" rms="0.0000000000000000e+00" purity="4.9457442760467529e-01" nType="0">
          <Node pos="l" depth="2" NCoef="0" IVar="11" Cut="8.9758390188217163e-01" cType="0" res="-9.9000000000000000e+01" rms="0.0000000000000000e+00" purity="5.3053289651870728e-01" nType="0">
            <Node pos="l" depth="3" NCoef="0" IVar="-1" Cut="0.0000000000000000e+00" cType="1" res="-9.9000000000000000e+01" rms="0.0000000000000000e+00" purity="5.6868058443069458e-01" nType="1"/>
            <Node pos="r" depth="3" NCoef="0" IVar="-1" Cut="0.0000000000000000e+00" cType="1" res="-9.9000000000000000e+01" rms="0.0000000000000000e+00" purity="4.6357977390289307e-01" nType="-1"/>
          </Node>
          <Node pos="r" depth="2" NCoef="0" IVar="-1" Cut="3.2844226837158203e+01" cType="1" res="-9.9000000000000000e+01" rms="0.0000000000000000e+00" purity="4.7881418466567993e-01" nType="-1"/>
        </Node>
      </Node>
    </BinaryTree>
    <BinaryTree type="DecisionTree" boostWeight="7.9623071980491358e-02" itree="48">
      <Node pos="s" depth="0" NCoef="0" IVar="2" Cut="2.5818135738372803e+00" cType="0" res="-9.9000000000000000e+01" rms="0.0000000000000000e+00" purity="4.9764582514762878e-01" nType="0">
        <Node pos="l" depth="1" NCoef="0" IVar="4" Cut="-1.3128498840332031e+02" cType="0" res="-9.9000000000000000e+01" rms="0.0000000000000000e+00" purity="6.6850519180297852e-01" nType="0">
          <Node pos="l" depth="2" NCoef="0" IVar="-1" Cut="0.0000000000000000e+00" cType="1" res="-9.9000000000000000e+01" rms="0.0000000000000000e+00" purity="8.3204019069671631e-01" nType="1"/>
          <Node pos="r" depth="2" NCoef="0" IVar="-1" Cut="0.0000000000000000e+00" cType="1" res="-9.9000000000000000e+01" rms="0.0000000000000000e+00" purity="4.5403566956520081e-01" nType="-1"/>
        </Node>
        <Node pos="r" depth="1" NCoef="0" IVar="11" Cut="1.6456577777862549e+00" cType="0" res="-9.9000000000000000e+01" rms="0.0000000000000000e+00" purity="4.8535731434822083e-01" nType="0">
          <Node pos="l" depth="2" NCoef="0" IVar="2" Cut="2.0913169384002686e+00" cType="1" res="-9.9000000000000000e+01" rms="0.0000000000000000e+00" purity="5.0301277637481689e-01" nType="0">
            <Node pos="l" depth="3" NCoef="0" IVar="-1" Cut="0.0000000000000000e+00" cType="1" res="-9.9000000000000000e+01" rms="0.0000000000000000e+00" purity="5.1221162080764771e-01" nType="1"/>
            <Node pos="r" depth="3" NCoef="0" IVar="-1" Cut="0.0000000000000000e+00" cType="1" res="-9.9000000000000000e+01" rms="0.0000000000000000e+00" purity="4.0569883584976196e-01" nType="-1"/>
          </Node>
          <Node pos="r" depth="2" NCoef="0" IVar="-1" Cut="3.1234094619750977e+01" cType="1" res="-9.9000000000000000e+01" rms="0.0000000000000000e+00" purity="4.6088382601737976e-01" nType="-1"/>
        </Node>
      </Node>
    </BinaryTree>
    <BinaryTree type="DecisionTree" boostWeight="5.4468381915195416e-02" itree="49">
      <Node pos="s" depth="0" NCoef="0" IVar="2" Cut="2.7152433395385742e+00" cType="0" res="-9.9000000000000000e+01" rms="0.0000000000000000e+00" purity="5.1040995121002197e-01" nType="0">
        <Node pos="l" depth="1" NCoef="0" IVar="4" Cut="-1.2205171966552734e+02" cType="0" res="-9.9000000000000000e+01" rms="0.0000000000000000e+00" purity="6.6336506605148315e-01" nType="0">
          <Node pos="l" depth="2" NCoef="0" IVar="-1" Cut="0.0000000000000000e+00" cType="1" res="-9.9000000000000000e+01" rms="0.0000000000000000e+00" purity="8.5066294670104980e-01" nType="1"/>
          <Node pos="r" depth="2" NCoef="0" IVar="-1" Cut="0.0000000000000000e+00" cType="1" res="-9.9000000000000000e+01" rms="0.0000000000000000e+00" purity="4.6060642600059509e-01" nType="-1"/>
        </Node>
        <Node pos="r" depth="1" NCoef="0" IVar="6" Cut="1.2860083007812500e+02" cType="1" res="-9.9000000000000000e+01" rms="0.0000000000000000e+00" purity="5.0059717893600464e-01" nType="0">
          <Node pos="l" depth="2" NCoef="0" IVar="-1" Cut="1.0846153259277344e+02" cType="0" res="-9.9000000000000000e+01" rms="0.0000000000000000e+00" purity="5.0941568613052368e-01" nType="1"/>
          <Node pos="r" depth="2" NCoef="0" IVar="13" Cut="1.1568055725097656e+02" cType="1" res="-9.9000000000000000e+01" rms="0.0000000000000000e+00" purity="4.3445405364036560e-01" nType="0">
            <Node pos="l" depth="3" NCoef="0" IVar="-1" Cut="0.0000000000000000e+00" cType="1" res="-9.9000000000000000e+01" rms="0.0000000000000000e+00" purity="5.0030696392059326e-01" nType="1"/>
            <Node pos="r" depth="3" NCoef="0" IVar="-1" Cut="0.0000000000000000e+00" cType="1" res="-9.9000000000000000e+01" rms="0.0000000000000000e+00" purity="3.9692571759223938e-01" nType="-1"/>
          </Node>
        </Node>
      </Node>
    </BinaryTree>
    <BinaryTree type="DecisionTree" boostWeight="6.3447222342354823e-02" itree="50">
      <Node pos="s" depth="0" NCoef="0" IVar="2" Cut="2.8632802963256836e+00" cType="0" res="-9.9000000000000000e+01" rms="0.0000000000000000e+00" purity="4.9789646267890930e-01" nType="0">
        <Node pos="l" depth="1" NCoef="0" IVar="-1" Cut="-1.0379138183593750e+02" cType="0" res="-9.9000000000000000e+01" rms="0.0000000000000000e+00" purity="6.7512345314025879e-01" nType="1"/>
        <Node pos="r" depth="1" NCoef="0" IVar="2" Cut="2.3190441131591797e+00" cType="0" res="-9.9000000000000000e+01" rms="0.0000000000000000e+00" purity="4.8789429664611816e-01" nType="0">
          <Node pos="l" depth="2" NCoef="0" IVar="-1" Cut="0.0000000000000000e+00" cType="1" res="-9.9000000000000000e+01" rms="0.0000000000000000e+00" purity="6.2679743766784668e-01" nType="1"/>
          <Node pos="r" depth="2" NCoef="0" IVar="16" Cut="2.0943841934204102e+00" cType="1" res="-9.9000000000000000e+01" rms="0.0000000000000000e+00" purity="4.8276329040527344e-01" nType="0">
            <Node pos="l" depth="3" NCoef="0" IVar="-1" Cut="0.0000000000000000e+00" cType="1" res="-9.9000000000000000e+01" rms="0.0000000000000000e+00" purity="5.0217014551162720e-01" nType="1"/>
            <Node pos="r" depth="3" NCoef="0" IVar="-1" Cut="0.0000000000000000e+00" cType="1" res="-9.9000000000000000e+01" rms="0.0000000000000000e+00" purity="4.5547723770141602e-01" nType="-1"/>
          </Node>
        </Node>
      </Node>
    </BinaryTree>
    <BinaryTree type="DecisionTree" boostWeight="1.2727539166866755e-01" itree="51">
      <Node pos="s" depth="0" NCoef="0" IVar="2" Cut="3.1838803291320801e+00" cType="0" res="-9.9000000000000000e+01" rms="0.0000000000000000e+00" purity="4.9831885099411011e-01" nType="0">
        <Node pos="l" depth="1" NCoef="0" IVar="-1" Cut="0.0000000000000000e+00" cType="1" res="-9.9000000000000000e+01" rms="0.0000000000000000e+00" purity="6.8569821119308472e-01" nType="1"/>
        <Node pos="r" depth="1" NCoef="0" IVar="13" Cut="2.6186093139648438e+02" cType="1" res="-9.9000000000000000e+01" rms="0.0000000000000000e+00" purity="4.9054574966430664e-01" nType="0">
          <Node pos="l" depth="2" NCoef="0" IVar="13" Cut="5.2287075042724609e+01" cType="0" res="-9.9000000000000000e+01" rms="0.0000000000000000e+00" purity="4.9476188421249390e-01" nType="0">
            <Node pos="l" depth="3" NCoef="0" IVar="-1" Cut="0.0000000000000000e+00" cType="1" res="-9.9000000000000000e+01" rms="0.0000000000000000e+00" purity="5.3063333034515381e-01" nType="1"/>
            <Node pos="r" depth="3" NCoef="0" IVar="-1" Cut="0.0000000000000000e+00" cType="1" res="-9.9000000000000000e+01" rms="0.0000000000000000e+00" purity="3.3406087756156921e-01" nType="-1"/>
          </Node>
          <Node pos="r" depth="2" NCoef="0" IVar="-1" Cut="0.0000000000000000e+00" cType="1" res="-9.9000000000000000e+01" rms="0.0000000000000000e+00" purity="3.3503529429435730e-01" nType="-1"/>
        </Node>
      </Node>
    </BinaryTree>
    <BinaryTree type="DecisionTree" boostWeight="1.0739218721831585e-01" itree="52">
      <Node pos="s" depth="0" NCoef="0" IVar="2" Cut="2.2460808753967285e+00" cType="0" res="-9.9000000000000000e+01" rms="0.0000000000000000e+00" purity="4.7503855824470520e-01" nType="0">
        <Node pos="l" depth="1" NCoef="0" IVar="10" Cut="1.2063311338424683e+00" cType="0" res="-9.9000000000000000e+01" rms="0.0000000000000000e+00" purity="6.1248815059661865e-01" nType="0">
          <Node pos="l" depth="2" NCoef="0" IVar="-1" Cut="2.3935654163360596e+00" cType="1" res="-9.9000000000000000e+01" rms="0.0000000000000000e+00" purity="7.0912021398544312e-01" nType="1"/>
          <Node pos="r" depth="2" NCoef="0" IVar="-1" Cut="0.0000000000000000e+00" cType="1" res="-9.9000000000000000e+01" rms="0.0000000000000000e+00" purity="3.5782578587532043e-01" nType="-1"/>
        </Node>
        <Node pos="r" depth="1" NCoef="0" IVar="-1" Cut="3.7595619201660156e+01" cType="1" res="-9.9000000000000000e+01" rms="0.0000000000000000e+00" purity="4.6076175570487976e-01" nType="-1"/>
      </Node>
    </BinaryTree>
    <BinaryTree type="DecisionTree" boostWeight="1.6089574408072324e-01" itree="53">
      <Node pos="s" depth="0" NCoef="0" IVar="2" Cut="2.8632802963256836e+00" cType="0" res="-9.9000000000000000e+01" rms="0.0000000000000000e+00" purity="5.0489896535873413e-01" nType="0">
        <Node pos="l" depth="1" NCoef="0" IVar="-1" Cut="0.0000000000000000e+00" cType="1" res="-9.9000000000000000e+01" rms="0.0000000000000000e+00" purity="6.9148254394531250e-01" nType="1"/>
        <Node pos="r" depth="1" NCoef="0" IVar="14" Cut="1.5307826232910156e+02" cType="1" res="-9.9000000000000000e+01" rms="0.0000000000000000e+00" purity="4.9519941210746765e-01" nType="0">
          <Node pos="l" depth="2" NCoef="0" IVar="14" Cut="4.1721542358398438e+01" cType="0" res="-9.9000000000000000e+01" rms="0.0000000000000000e+00" purity="5.0000679492950439e-01" nType="0">
            <Node pos="l" depth="3" NCoef="0" IVar="-1" Cut="0.0000000000000000e+00" cType="1" res="-9.9000000000000000e+01" rms="0.0000000000000000e+00" purity="5.5488580465316772e-01" nType="1"/>
            <Node pos="r" depth="3" NCoef="0" IVar="-1" Cut="0.0000000000000000e+00" cType="1" res="-9.9000000000000000e+01" rms="0.0000000000000000e+00" purity="3.9724779129028320e-01" nType="-1"/>
          </Node>
          <Node pos="r" depth="2" NCoef="0" IVar="-1" Cut="0.0000000000000000e+00" cType="1" res="-9.9000000000000000e+01" rms="0.0000000000000000e+00" purity="3.5691848397254944e-01" nType="-1"/>
        </Node>
      </Node>
    </BinaryTree>
    <BinaryTree type="DecisionTree" boostWeight="5.3913426408540362e-02" itree="54">
      <Node pos="s" depth="0" NCoef="0" IVar="2" Cut="3.2236611843109131e+00" cType="0" res="-9.9000000000000000e+01" rms="0.0000000000000000e+00" purity="4.9497750401496887e-01" nType="0">
        <Node pos="l" depth="1" NCoef="0" IVar="-1" Cut="0.0000000000000000e+00" cType="1" res="-9.9000000000000000e+01" rms="0.0000000000000000e+00" purity="6.7486238479614258e-01" nType="1"/>
        <Node pos="r" depth="1" NCoef="0" IVar="3" Cut="3.3973651885986328e+01" cType="1" res="-9.9000000000000000e+01" rms="0.0000000000000000e+00" purity="4.8824188113212585e-01" nType="0">
          <Node pos="l" depth="2" NCoef="0" IVar="4" Cut="-1.4600541687011719e+02" cType="0" res="-9.9000000000000000e+01" rms="0.0000000000000000e+00" purity="4.9759179353713989e-01" nType="0">
            <Node pos="l" depth="3" NCoef="0" IVar="-1" Cut="0.0000000000000000e+00" cType="1" res="-9.9000000000000000e+01" rms="0.0000000000000000e+00" purity="5.0612705945968628e-01" nType="1"/>
            <Node pos="r" depth="3" NCoef="0" IVar="-1" Cut="0.0000000000000000e+00" cType="1" res="-9.9000000000000000e+01" rms="0.0000000000000000e+00" purity="4.2253810167312622e-01" nType="-1"/>
          </Node>
          <Node pos="r" depth="2" NCoef="0" IVar="-1" Cut="6.5163902282714844e+01" cType="0" res="-9.9000000000000000e+01" rms="0.0000000000000000e+00" purity="4.2247259616851807e-01" nType="-1"/>
        </Node>
      </Node>
    </BinaryTree>
    <BinaryTree type="DecisionTree" boostWeight="7.4197578483155599e-02" itree="55">
      <Node pos="s" depth="0" NCoef="0" IVar="2" Cut="2.5772829055786133e+00" cType="0" res="-9.9000000000000000e+01" rms="0.0000000000000000e+00" purity="4.8970922827720642e-01" nType="0">
        <Node pos="l" depth="1" NCoef="0" IVar="9" Cut="4.4083565473556519e-01" cType="0" res="-9.9000000000000000e+01" rms="0.0000000000000000e+00" purity="6.6896706819534302e-01" nType="0">
          <Node pos="l" depth="2" NCoef="0" IVar="-1" Cut="0.0000000000000000e+00" cType="1" res="-9.9000000000000000e+01" rms="0.0000000000000000e+00" purity="7.9986387491226196e-01" nType="1"/>
